{"learner":{"attributes":{"scikit_learn":"{\"_estimator_type\": \"regressor\"}"},"feature_names":["BondsToAtomDescriptor-bondsToAtom_self","DistanceToAtomDescriptor-distanceToAtom_self","EffectiveAtomPolarizabilityDescriptor-effAtomPol_self","IPAtomicHOSEDescriptor-ipAtomicHOSE_self","InductiveAtomicHardnessDescriptor-indAtomHardnesss_self","InductiveAtomicSoftnessDescriptor-indAtomSoftness_self","PartialPiChargeDescriptor-pepe_self","PartialSigmaChargeDescriptor-partialSigmaCharge_self","PartialTChargeMMFF94Descriptor-partialTCMMFF94_self","PartialTChargePEOEDescriptor-pepeT_self","PiElectronegativityDescriptor-elecPiA_self","index_neighbor1","AtomDegreeDescriptor-aNeg_neighbor1","AtomHybridizationDescriptor-aHyb_neighbor1","AtomHybridizationVSEPRDescriptor-hybr_neighbor1","BondsToAtomDescriptor-bondsToAtom_neighbor1","DistanceToAtomDescriptor-distanceToAtom_neighbor1","EffectiveAtomPolarizabilityDescriptor-effAtomPol_neighbor1","InductiveAtomicHardnessDescriptor-indAtomHardnesss_neighbor1","InductiveAtomicSoftnessDescriptor-indAtomSoftness_neighbor1","PartialPiChargeDescriptor-pepe_neighbor1","PartialSigmaChargeDescriptor-partialSigmaCharge_neighbor1","PartialTChargeMMFF94Descriptor-partialTCMMFF94_neighbor1","PartialTChargePEOEDescriptor-pepeT_neighbor1","PiElectronegativityDescriptor-elecPiA_neighbor1","index_neighbor2","AtomDegreeDescriptor-aNeg_neighbor2","AtomHybridizationDescriptor-aHyb_neighbor2","AtomHybridizationVSEPRDescriptor-hybr_neighbor2","AtomValenceDescriptor-val_neighbor2","BondsToAtomDescriptor-bondsToAtom_neighbor2","CovalentRadiusDescriptor-covalentRadius_neighbor2","DistanceToAtomDescriptor-distanceToAtom_neighbor2","EffectiveAtomPolarizabilityDescriptor-effAtomPol_neighbor2","IPAtomicHOSEDescriptor-ipAtomicHOSE_neighbor2","InductiveAtomicHardnessDescriptor-indAtomHardnesss_neighbor2","InductiveAtomicSoftnessDescriptor-indAtomSoftness_neighbor2","PartialPiChargeDescriptor-pepe_neighbor2","PartialSigmaChargeDescriptor-partialSigmaCharge_neighbor2","PartialTChargeMMFF94Descriptor-partialTCMMFF94_neighbor2","PartialTChargePEOEDescriptor-pepeT_neighbor2","PeriodicTablePositionDescriptor-periodicTablePosition_neighbor2","PiElectronegativityDescriptor-elecPiA_neighbor2","index_neighbor3","AtomDegreeDescriptor-aNeg_neighbor3","AtomHybridizationDescriptor-aHyb_neighbor3","AtomHybridizationVSEPRDescriptor-hybr_neighbor3","AtomValenceDescriptor-val_neighbor3","BondsToAtomDescriptor-bondsToAtom_neighbor3","CovalentRadiusDescriptor-covalentRadius_neighbor3","DistanceToAtomDescriptor-distanceToAtom_neighbor3","EffectiveAtomPolarizabilityDescriptor-effAtomPol_neighbor3","IPAtomicHOSEDescriptor-ipAtomicHOSE_neighbor3","InductiveAtomicHardnessDescriptor-indAtomHardnesss_neighbor3","InductiveAtomicSoftnessDescriptor-indAtomSoftness_neighbor3","PartialPiChargeDescriptor-pepe_neighbor3","PartialSigmaChargeDescriptor-partialSigmaCharge_neighbor3","PartialTChargeMMFF94Descriptor-partialTCMMFF94_neighbor3","PartialTChargePEOEDescriptor-pepeT_neighbor3","PeriodicTablePositionDescriptor-periodicTablePosition_neighbor3","PiElectronegativityDescriptor-elecPiA_neighbor3","index_neighbor4","AtomDegreeDescriptor-aNeg_neighbor4","AtomHybridizationDescriptor-aHyb_neighbor4","AtomHybridizationVSEPRDescriptor-hybr_neighbor4","AtomValenceDescriptor-val_neighbor4","BondsToAtomDescriptor-bondsToAtom_neighbor4","CovalentRadiusDescriptor-covalentRadius_neighbor4","DistanceToAtomDescriptor-distanceToAtom_neighbor4","EffectiveAtomPolarizabilityDescriptor-effAtomPol_neighbor4","IPAtomicHOSEDescriptor-ipAtomicHOSE_neighbor4","InductiveAtomicHardnessDescriptor-indAtomHardnesss_neighbor4","InductiveAtomicSoftnessDescriptor-indAtomSoftness_neighbor4","PartialPiChargeDescriptor-pepe_neighbor4","PartialSigmaChargeDescriptor-partialSigmaCharge_neighbor4","PartialTChargeMMFF94Descriptor-partialTCMMFF94_neighbor4","PartialTChargePEOEDescriptor-pepeT_neighbor4","PeriodicTablePositionDescriptor-periodicTablePosition_neighbor4","PiElectronegativityDescriptor-elecPiA_neighbor4","index_neighbor5","AtomDegreeDescriptor-aNeg_neighbor5","AtomHybridizationDescriptor-aHyb_neighbor5","AtomHybridizationVSEPRDescriptor-hybr_neighbor5","AtomValenceDescriptor-val_neighbor5","BondsToAtomDescriptor-bondsToAtom_neighbor5","CovalentRadiusDescriptor-covalentRadius_neighbor5","DistanceToAtomDescriptor-distanceToAtom_neighbor5","EffectiveAtomPolarizabilityDescriptor-effAtomPol_neighbor5","IPAtomicHOSEDescriptor-ipAtomicHOSE_neighbor5","InductiveAtomicHardnessDescriptor-indAtomHardnesss_neighbor5","InductiveAtomicSoftnessDescriptor-indAtomSoftness_neighbor5","PartialPiChargeDescriptor-pepe_neighbor5","PartialSigmaChargeDescriptor-partialSigmaCharge_neighbor5","PartialTChargeMMFF94Descriptor-partialTCMMFF94_neighbor5","PartialTChargePEOEDescriptor-pepeT_neighbor5","PeriodicTablePositionDescriptor-periodicTablePosition_neighbor5","PiElectronegativityDescriptor-elecPiA_neighbor5"],"feature_types":["float","float","float","float","float","float","float","float","float","float","float","int","float","float","float","float","float","float","float","float","float","float","float","float","float","int","float","float","float","float","float","float","float","float","float","float","float","float","float","float","float","float","float","float","float","float","float","float","float","float","float","float","float","float","float","float","float","float","float","float","float","float","float","float","float","float","float","float","float","float","float","float","float","float","float","float","float","float","float","float","float","float","float","float","float","float","float","float","float","float","float","float","float","float","float","float","float"],"gradient_booster":{"model":{"gbtree_model_param":{"num_parallel_tree":"1","num_trees":"100"},"iteration_indptr":[0,1,2,3,4,5,6,7,8,9,10,11,12,13,14,15,16,17,18,19,20,21,22,23,24,25,26,27,28,29,30,31,32,33,34,35,36,37,38,39,40,41,42,43,44,45,46,47,48,49,50,51,52,53,54,55,56,57,58,59,60,61,62,63,64,65,66,67,68,69,70,71,72,73,74,75,76,77,78,79,80,81,82,83,84,85,86,87,88,89,90,91,92,93,94,95,96,97,98,99,100],"tree_info":[0,0,0,0,0,0,0,0,0,0,0,0,0,0,0,0,0,0,0,0,0,0,0,0,0,0,0,0,0,0,0,0,0,0,0,0,0,0,0,0,0,0,0,0,0,0,0,0,0,0,0,0,0,0,0,0,0,0,0,0,0,0,0,0,0,0,0,0,0,0,0,0,0,0,0,0,0,0,0,0,0,0,0,0,0,0,0,0,0,0,0,0,0,0,0,0,0,0,0,0],"trees":[{"base_weights":[-0E0,-2.040185E1,3.2510754E1,-7.786626E1,-1.6940435E1,2.727655E1,4.65027E0,-7.908969E1,-6.188952E0,-1.9278412E1,4.687881E0,3.575795E1,2.433035E1,-1.216182E0,-8.090239E0,-0E0,-6.497576E-1,-1.6603879E0,-4.5798354E0,2.1238673E0,-5.366812E-1,3.6869016E0,4.657271E-1,1.2765944E0,2.5557973E0],"categories":[],"categories_nodes":[],"categories_segments":[],"categories_sizes":[],"default_left":[0,0,0,0,0,0,0,0,0,0,0,0,0,0,0,0,0,0,0,0,0,0,0,0,0],"id":0,"left_children":[1,3,5,7,9,11,-1,13,15,17,19,21,23,-1,-1,-1,-1,-1,-1,-1,-1,-1,-1,-1,-1],"loss_changes":[2.3360702E6,4.162982E5,8.603325E4,4.7755625E3,1.0491325E5,1.60118125E4,0E0,3.4245E3,8.681335E0,1.23415E5,3.591249E4,6.1262812E3,7.4842812E3,0E0,0E0,0E0,0E0,0E0,0E0,0E0,0E0,0E0,0E0,0E0,0E0],"parents":[2147483647,0,0,1,1,2,2,3,3,4,4,5,5,7,7,8,8,9,9,10,10,11,11,12,12],"right_children":[2,4,6,8,10,12,-1,14,16,18,20,22,24,-1,-1,-1,-1,-1,-1,-1,-1,-1,-1,-1,-1],"split_conditions":[8.34E-1,-2.1018676E-1,1.078E0,5.4495625E0,-1.8459229E-1,-1.6843231E-1,4.65027E0,1.4234571E-1,3E0,1.3040836E-1,1.42E-1,3.9908895E-1,8.86E-1,-1.216182E0,-8.090239E0,-0E0,-6.497576E-1,-1.6603879E0,-4.5798354E0,2.1238673E0,-5.366812E-1,3.6869016E0,4.657271E-1,1.2765944E0,2.5557973E0],"split_indices":[22,7,22,2,7,40,0,21,0,38,22,76,22,0,0,0,0,0,0,0,0,0,0,0,0],"split_type":[0,0,0,0,0,0,0,0,0,0,0,0,0,0,0,0,0,0,0,0,0,0,0,0,0],"sum_hessian":[3.502E3,2.154E3,1.348E3,1.1E2,2.044E3,1.003E3,3.45E2,1.07E2,3E0,1.846E3,1.98E2,2.29E2,7.74E2,5E0,1.02E2,1E0,2E0,1.692E3,1.54E2,7.1E1,1.27E2,2.19E2,1E1,8.6E1,6.88E2],"tree_param":{"num_deleted":"0","num_feature":"97","num_nodes":"25","size_leaf_vector":"1"}},{"base_weights":[-2.8450908E-3,-1.843114E1,2.9355667E1,-7.092805E1,-1.5269534E1,2.4630684E1,4.1983423E0,-7.341279E1,-1.5507386E1,-1.304898E1,-3.5718357E1,2.8810686E1,1.992353E1,-1.1756427E0,-7.510174E0,-1.7390766E0,-0E0,-1.4970833E0,8.9500064E-1,-4.21847E0,-8.3290213E-1,3.155089E0,2.092983E0,1.0735341E0,2.1237924E0],"categories":[],"categories_nodes":[],"categories_segments":[],"categories_sizes":[],"default_left":[0,0,0,0,0,0,0,0,0,0,0,0,0,0,0,0,0,0,0,0,0,0,0,0,0],"id":1,"left_children":[1,3,5,7,9,11,-1,13,15,17,19,21,23,-1,-1,-1,-1,-1,-1,-1,-1,-1,-1,-1,-1],"loss_changes":[1.9053895E6,3.474767E5,7.0019375E4,4.2510625E3,8.811891E4,1.370425E4,0E0,1.96525E3,5.1039795E2,8.041919E4,3.0517516E4,3.9499375E3,3.5595156E3,0E0,0E0,0E0,0E0,0E0,0E0,0E0,0E0,0E0,0E0,0E0,0E0],"parents":[2147483647,0,0,1,1,2,2,3,3,4,4,5,5,7,7,8,8,9,9,10,10,11,11,12,12],"right_children":[2,4,6,8,10,12,-1,14,16,18,20,22,24,-1,-1,-1,-1,-1,-1,-1,-1,-1,-1,-1,-1],"split_conditions":[8.34E-1,-2.1018676E-1,1.078E0,4.9943166E0,1.4434002E-1,3.8701317E-1,4.1983423E0,1.4234571E-1,1.7652322E0,-1.836344E-1,-1.836344E-1,4.4225675E-1,8.88E-1,-1.1756427E0,-7.510174E0,-1.7390766E0,-0E0,-1.4970833E0,8.9500064E-1,-4.21847E0,-8.3290213E-1,3.155089E0,2.092983E0,1.0735341E0,2.1237924E0],"split_indices":[22,7,22,2,38,76,0,21,4,7,7,21,22,0,0,0,0,0,0,0,0,0,0,0,0],"split_type":[0,0,0,0,0,0,0,0,0,0,0,0,0,0,0,0,0,0,0,0,0,0,0,0,0],"sum_hessian":[3.502E3,2.154E3,1.348E3,1.1E2,2.044E3,1.003E3,3.45E2,1.02E2,8E0,1.859E3,1.85E2,5.03E2,5E2,5E0,9.7E1,6E0,2E0,1.713E3,1.46E2,1.45E2,4E1,3.5E2,1.53E2,7.5E1,4.25E2],"tree_param":{"num_deleted":"0","num_feature":"97","num_nodes":"25","size_leaf_vector":"1"}},{"base_weights":[-1.2079749E-2,-1.6664213E1,2.6516151E1,-6.472138E1,-1.377059E1,3.359014E1,1.9805681E1,-6.847624E1,-2.2662407E1,-1.1746766E1,-3.2410698E1,3.5985035E1,1.790059E1,2.094712E0,1.0815171E1,-8.5981816E-1,-6.989734E0,-2.4099128E0,-1.9002153E-2,-1.3556278E0,7.446947E-1,-3.9135845E0,-1.0105976E0,3.6185493E0,1.7492992E-1,1.8292868E0,1.5421562E-1,-3.559595E-1,1.2174394E0],"categories":[],"categories_nodes":[],"categories_segments":[],"categories_sizes":[],"default_left":[0,0,0,0,0,0,0,0,0,0,0,0,0,0,0,0,0,0,0,0,0,0,0,0,0,0,0,0,0],"id":2,"left_children":[1,3,5,7,9,11,13,15,17,19,21,23,25,-1,27,-1,-1,-1,-1,-1,-1,-1,-1,-1,-1,-1,-1,-1,-1],"loss_changes":[1.555752E6,2.91227E5,5.727725E4,2.5213125E3,7.323691E4,1.7292875E4,4.826125E3,2.1398438E3,5.184785E2,6.59833E4,2.4803031E4,2.7621875E3,1.9975E2,0E0,2.5319736E3,0E0,0E0,0E0,0E0,0E0,0E0,0E0,0E0,0E0,0E0,0E0,0E0,0E0,0E0],"parents":[2147483647,0,0,1,1,2,2,3,3,4,4,5,5,6,6,7,7,8,8,9,9,10,10,11,11,12,12,14,14],"right_children":[2,4,6,8,10,12,14,16,18,20,22,24,26,-1,28,-1,-1,-1,-1,-1,-1,-1,-1,-1,-1,-1,-1,-1,-1],"split_conditions":[8.34E-1,-2.1018676E-1,2.43E-1,5.53E-1,1.4434002E-1,3.8680133E-1,2E0,1.4234571E-1,6.712551E-2,-1.8459229E-1,2.22E-1,4.0144056E-1,7.958625E0,2.094712E0,4.16425E0,-8.5981816E-1,-6.989734E0,-2.4099128E0,-1.9002153E-2,-1.3556278E0,7.446947E-1,-3.9135845E0,-1.0105976E0,3.6185493E0,1.7492992E-1,1.8292868E0,1.5421562E-1,-3.559595E-1,1.2174394E0],"split_indices":[22,7,75,22,38,92,44,21,74,7,22,56,69,0,69,0,0,0,0,0,0,0,0,0,0,0,0,0,0],"split_type":[0,0,0,0,0,0,0,0,0,0,0,0,0,0,0,0,0,0,0,0,0,0,0,0,0,0,0,0,0],"sum_hessian":[3.502E3,2.154E3,1.348E3,1.1E2,2.044E3,6.36E2,7.12E2,9.5E1,1.5E1,1.859E3,1.85E2,5.4E2,9.6E1,6.19E2,9.3E1,4E0,9.1E1,1.3E1,2E0,1.702E3,1.57E2,1.36E2,4.9E1,5.36E2,4E0,9.2E1,4E0,6E0,8.7E1],"tree_param":{"num_deleted":"0","num_feature":"97","num_nodes":"29","size_leaf_vector":"1"}},{"base_weights":[-3.1032052E-2,-1.505579E1,2.3961546E1,-5.9130783E1,-1.2405227E1,2.0043358E1,3.4416962E0,-5.9762135E0,-2.8135216E0,-1.0559502E1,-2.9427279E1,2.6640905E1,1.7780537E1,-0E0,-3.0624285E-1,-1.1587511E0,1.870025E0,-3.4745862E0,-6.8542224E-1,6.048529E-1,2.801158E0,9.3666315E-1,1.8695418E0],"categories":[],"categories_nodes":[],"categories_segments":[],"categories_sizes":[],"default_left":[0,0,0,1,0,0,0,0,0,0,0,0,0,0,0,0,0,0,0,0,0,0,0],"id":3,"left_children":[1,3,5,7,9,11,-1,-1,13,15,17,19,21,-1,-1,-1,-1,-1,-1,-1,-1,-1,-1],"loss_changes":[1.2695336E6,2.449891E5,4.8107438E4,1.9595312E3,6.108825E4,9.912156E3,0E0,0E0,8.172302E0,5.8374125E4,2.0613484E4,4.654547E3,4.0032656E3,0E0,0E0,0E0,0E0,0E0,0E0,0E0,0E0,0E0,0E0],"parents":[2147483647,0,0,1,1,2,2,3,3,4,4,5,5,8,8,9,9,10,10,11,11,12,12],"right_children":[2,4,6,8,10,12,-1,-1,14,16,18,20,22,-1,-1,-1,-1,-1,-1,-1,-1,-1,-1],"split_conditions":[8.42E-1,-2.1018676E-1,1.078E0,1.0292469E1,1.4434002E-1,-1.6843231E-1,3.4416962E0,-5.9762135E0,3E0,-1.726926E-1,-1.836344E-1,6.591626E-1,8.87E-1,-0E0,-3.0624285E-1,-1.1587511E0,1.870025E0,-3.4745862E0,-6.8542224E-1,6.048529E-1,2.801158E0,9.3666315E-1,1.8695418E0],"split_indices":[22,7,22,87,38,40,0,0,0,7,7,18,22,0,0,0,0,0,0,0,0,0,0],"split_type":[0,0,0,0,0,0,0,0,0,0,0,0,0,0,0,0,0,0,0,0,0,0,0],"sum_hessian":[3.502E3,2.156E3,1.346E3,1.1E2,2.046E3,1.001E3,3.45E2,1.08E2,2E0,1.861E3,1.85E2,2.27E2,7.74E2,1E0,1E0,1.804E3,5.7E1,1.45E2,4E1,1.8E1,2.09E2,8.8E1,6.86E2],"tree_param":{"num_deleted":"0","num_feature":"97","num_nodes":"23","size_leaf_vector":"1"}},{"base_weights":[-2.7581267E-2,-1.3613635E1,2.1614906E1,-5.374964E1,-1.11976385E1,2.6648706E1,1.5121334E1,-5.7194218E1,-1.8913773E1,-9.514641E0,-2.6703012E1,2.8076063E1,1.40275545E1,1.6019467E0,8.702873E0,-6.677167E-1,-5.8447185E0,-2.1276672E0,-0E0,-1.045209E0,1.7109336E0,-3.2253716E0,-8.27195E-1,2.8212001E0,8.989901E-2,1.4267733E0,7.312299E-2,-3.777359E-1,1.0021744E0],"categories":[],"categories_nodes":[],"categories_segments":[],"categories_sizes":[],"default_left":[0,0,0,0,0,1,0,0,0,0,0,0,0,0,0,0,0,0,0,0,0,0,0,0,0,0,0,0,0],"id":4,"left_children":[1,3,5,7,9,11,13,15,17,19,21,23,25,-1,27,-1,-1,-1,-1,-1,-1,-1,-1,-1,-1,-1,-1,-1,-1],"loss_changes":[1.035517E6,2.0317156E5,3.9942E4,2.8206875E3,5.0697344E4,9.16975E3,1.9154219E3,2.0289375E3,1.1110244E3,4.8369438E4,1.6876266E4,1.9083438E3,5.544922E1,0E0,2.0705225E3,0E0,0E0,0E0,0E0,0E0,0E0,0E0,0E0,0E0,0E0,0E0,0E0,0E0,0E0],"parents":[2147483647,0,0,1,1,2,2,3,3,4,4,5,5,6,6,7,7,8,8,9,9,10,10,11,11,12,12,14,14],"right_children":[2,4,6,8,10,12,14,16,18,20,22,24,26,-1,28,-1,-1,-1,-1,-1,-1,-1,-1,-1,-1,-1,-1,-1,-1],"split_conditions":[8.34E-1,-2.1018676E-1,3.31E-1,4.764375E0,1.4434002E-1,3.8933435E-1,2E0,1.4234571E-1,1.6471456E0,-1.726926E-1,2.22E-1,4.0144056E-1,6.979134E0,1.6019467E0,4.16425E0,-6.677167E-1,-5.8447185E0,-2.1276672E0,-0E0,-1.045209E0,1.7109336E0,-3.2253716E0,-8.27195E-1,2.8212001E0,8.989901E-2,1.4267733E0,7.312299E-2,-3.777359E-1,1.0021744E0],"split_indices":[22,7,75,2,38,92,44,21,53,7,22,56,87,0,69,0,0,0,0,0,0,0,0,0,0,0,0,0,0],"split_type":[0,0,0,0,0,0,0,0,0,0,0,0,0,0,0,0,0,0,0,0,0,0,0,0,0,0,0,0,0],"sum_hessian":[3.502E3,2.154E3,1.348E3,1.1E2,2.044E3,7.41E2,6.07E2,9.4E1,1.6E1,1.859E3,1.85E2,6.54E2,8.7E1,5.18E2,8.9E1,4E0,9E1,1.3E1,3E0,1.802E3,5.7E1,1.36E2,4.9E1,6.5E2,4E0,8.4E1,3E0,6E0,8.3E1],"tree_param":{"num_deleted":"0","num_feature":"97","num_nodes":"29","size_leaf_vector":"1"}},{"base_weights":[-3.995054E-2,-1.2309806E1,1.950524E1,-4.9113354E1,-1.0094849E1,1.6030344E1,2.8000355E0,-5.217738E1,-1.6199091E1,-1.16197195E1,3.948944E0,1.9153622E1,1.2997564E1,-2.1528556E0,-5.673845E0,-1.8358088E0,-0E0,-9.9262804E-1,-2.8424814E0,1.7389128E0,-4.212694E-1,6.5673953E-1,1.9788347E0,1.8662055E-1,1.3330321E0],"categories":[],"categories_nodes":[],"categories_segments":[],"categories_sizes":[],"default_left":[0,0,0,0,0,0,0,0,0,0,0,0,0,0,0,0,0,0,0,0,0,0,0,0,0],"id":5,"left_children":[1,3,5,7,9,11,-1,13,15,17,19,21,23,-1,-1,-1,-1,-1,-1,-1,-1,-1,-1,-1,-1],"loss_changes":[8.445651E5,1.7085562E5,3.5158812E4,2.966E3,4.4521906E4,6.5475312E3,0E0,1.6804688E3,8.541636E2,4.9613734E4,2.3680652E4,2.1436719E3,1.5772188E3,0E0,0E0,0E0,0E0,0E0,0E0,0E0,0E0,0E0,0E0,0E0,0E0],"parents":[2147483647,0,0,1,1,2,2,3,3,4,4,5,5,7,7,8,8,9,9,10,10,11,11,12,12],"right_children":[2,4,6,8,10,12,-1,14,16,18,20,22,24,-1,-1,-1,-1,-1,-1,-1,-1,-1,-1,-1,-1],"split_conditions":[8.34E-1,-2.1018676E-1,1.065E0,5.53E-1,-1.8459229E-1,5.6E-1,2.8000355E0,1.8998389E-1,4.9694303E-2,1.3040836E-1,1.42E-1,-3.91E-1,4.16425E0,-2.1528556E0,-5.673845E0,-1.8358088E0,-0E0,-9.9262804E-1,-2.8424814E0,1.7389128E0,-4.212694E-1,6.5673953E-1,1.9788347E0,1.8662055E-1,1.3330321E0],"split_indices":[22,7,22,22,7,75,0,23,74,38,22,57,69,0,0,0,0,0,0,0,0,0,0,0,0],"split_type":[0,0,0,0,0,0,0,0,0,0,0,0,0,0,0,0,0,0,0,0,0,0,0,0,0],"sum_hessian":[3.502E3,2.154E3,1.348E3,1.1E2,2.044E3,9.78E2,3.7E2,9.5E1,1.5E1,1.846E3,1.98E2,4.54E2,5.24E2,2E1,7.5E1,1.2E1,3E0,1.692E3,1.54E2,7.1E1,1.27E2,2.8E1,4.26E2,1.8E1,5.06E2],"tree_param":{"num_deleted":"0","num_feature":"97","num_nodes":"25","size_leaf_vector":"1"}},{"base_weights":[-5.0577447E-2,-1.1124341E1,1.7631042E1,-4.5024807E1,-9.086743E0,1.4496523E1,2.5274006E1,-4.7714565E1,-1.5317901E1,-1.0478948E1,3.6027703E0,1.953986E1,1.2753322E1,3.0596423E0,2.1602259E0,-5.7348704E-1,-4.8710313E0,-1.7356738E0,-0E0,-2.255788E0,-8.4957594E-1,1.5864896E0,-3.730034E-1,3.9036855E-1,2.0620856E0,5.653877E-2,1.3026783E0],"categories":[],"categories_nodes":[],"categories_segments":[],"categories_sizes":[],"default_left":[0,0,0,0,0,0,0,0,0,1,0,0,0,0,0,0,0,0,0,0,0,0,0,0,0,0,0],"id":6,"left_children":[1,3,5,7,9,11,13,15,17,19,21,23,25,-1,-1,-1,-1,-1,-1,-1,-1,-1,-1,-1,-1,-1,-1],"loss_changes":[6.895531E5,1.4498512E5,2.8424188E4,1.6493438E3,3.6768406E4,5.853547E3,2.946875E2,1.0511719E3,7.61687E2,4.223311E4,1.9595422E4,2.8881016E3,2.3334531E3,0E0,0E0,0E0,0E0,0E0,0E0,0E0,0E0,0E0,0E0,0E0,0E0,0E0,0E0],"parents":[2147483647,0,0,1,1,2,2,3,3,4,4,5,5,6,6,7,7,8,8,9,9,10,10,11,11,12,12],"right_children":[2,4,6,8,10,12,14,16,18,20,22,24,26,-1,-1,-1,-1,-1,-1,-1,-1,-1,-1,-1,-1,-1,-1],"split_conditions":[8.42E-1,-2.1018676E-1,1.065E0,5.53E-1,-1.8459229E-1,-1.6843231E-1,4.9694303E-2,1.4234571E-1,4.9694303E-2,7.3E-1,1.42E-1,6.591626E-1,4.9685388E0,3.0596423E0,2.1602259E0,-5.7348704E-1,-4.8710313E0,-1.7356738E0,-0E0,-2.255788E0,-8.4957594E-1,1.5864896E0,-3.730034E-1,3.9036855E-1,2.0620856E0,5.653877E-2,1.3026783E0],"split_indices":[22,7,22,22,7,40,74,21,74,67,22,18,42,0,0,0,0,0,0,0,0,0,0,0,0,0,0],"split_type":[0,0,0,0,0,0,0,0,0,0,0,0,0,0,0,0,0,0,0,0,0,0,0,0,0,0,0],"sum_hessian":[3.502E3,2.156E3,1.346E3,1.1E2,2.046E3,9.76E2,3.7E2,9.5E1,1.5E1,1.846E3,2E2,2.23E2,7.53E2,1.2E2,2.5E2,4E0,9.1E1,1.2E1,3E0,2.45E2,1.601E3,7.1E1,1.29E2,1.8E1,2.05E2,1.8E1,7.35E2],"tree_param":{"num_deleted":"0","num_feature":"97","num_nodes":"27","size_leaf_vector":"1"}},{"base_weights":[-4.509591E-2,-1.006771E1,1.59191065E1,-4.113826E1,-8.198604E0,1.3186652E1,2.323963E1,-5.3340583E0,-2.7926855E1,2.2603755E0,-9.705892E0,1.809481E1,1.1657263E1,1.959437E-1,2.333692E0,-0E0,-2.866451E0,-2.8593818E-2,1.8367542E0,-8.408186E-1,-2.1130872E0,1.904376E0,1.9539446E-1,5.6138164E-1,1.2309483E0],"categories":[],"categories_nodes":[],"categories_segments":[],"categories_sizes":[],"default_left":[0,0,0,0,0,0,0,0,0,0,0,0,0,0,0,0,0,0,0,0,0,0,0,0,0],"id":7,"left_children":[1,3,5,7,9,11,13,-1,15,17,19,21,23,-1,-1,-1,-1,-1,-1,-1,-1,-1,-1,-1,-1],"loss_changes":[5.634748E5,1.218063E5,2.3735281E4,3.6361562E3,3.2674516E4,5.197203E3,2.475E1,0E0,1.6545469E3,1.1143033E4,2.45855E4,2.8029531E3,2.2909375E3,0E0,0E0,0E0,0E0,0E0,0E0,0E0,0E0,0E0,0E0,0E0,0E0],"parents":[2147483647,0,0,1,1,2,2,3,3,4,4,5,5,6,6,8,8,9,9,10,10,11,11,12,12],"right_children":[2,4,6,8,10,12,14,-1,16,18,20,22,24,-1,-1,-1,-1,-1,-1,-1,-1,-1,-1,-1,-1],"split_conditions":[8.34E-1,-2.1018676E-1,1.078E0,3E0,-1.9372164E-1,-1.689393E-1,-1.6619283E-1,-5.3340583E0,-3.91E-1,-1.8916784E-1,9.5E-2,5.5827603E0,8.87E-1,1.959437E-1,2.333692E0,-0E0,-2.866451E0,-2.8593818E-2,1.8367542E0,-8.408186E-1,-2.1130872E0,1.904376E0,1.9539446E-1,5.6138164E-1,1.2309483E0],"split_indices":[22,7,22,12,40,38,7,0,57,7,39,78,22,0,0,0,0,0,0,0,0,0,0,0,0],"split_type":[0,0,0,0,0,0,0,0,0,0,0,0,0,0,0,0,0,0,0,0,0,0,0,0,0],"sum_hessian":[3.502E3,2.154E3,1.348E3,1.1E2,2.044E3,1.003E3,3.45E2,4.1E1,6.9E1,2.56E2,1.788E3,2.11E2,7.92E2,3E0,3.42E2,2E0,6.7E1,2.29E2,2.7E1,1.622E3,1.66E2,1.97E2,1.4E1,8.8E1,7.04E2],"tree_param":{"num_deleted":"0","num_feature":"97","num_nodes":"25","size_leaf_vector":"1"}},{"base_weights":[-4.8031732E-2,-9.096092E0,1.4397823E1,-3.771535E1,-7.376602E0,1.7900965E1,9.869632E0,-4.9052415E0,-2.5495811E1,-8.575356E0,4.385824E0,1.9006662E1,9.28548E0,1.2468544E0,1.0136652E1,-4.4711176E-1,-2.7417397E0,-2.3521526E0,-7.271063E-1,1.3775476E0,-1.6005127E-1,1.7894363E0,3.1055653E0,9.779664E-1,3.5729624E-2,-5.9080267E-1,4.865365E-1,1.0234919E0,-0E0],"categories":[],"categories_nodes":[],"categories_segments":[],"categories_sizes":[],"default_left":[0,0,0,0,0,0,0,0,0,0,0,0,0,0,0,0,0,0,0,0,0,0,0,0,0,0,0,0,0],"id":8,"left_children":[1,3,5,7,9,11,13,-1,15,17,19,21,23,25,27,-1,-1,-1,-1,-1,-1,-1,-1,-1,-1,-1,-1,-1,-1],"loss_changes":[4.6029953E5,1.03356984E5,1.9465625E4,3.37225E3,2.9408117E4,5.106328E3,1.1757891E3,0E0,1.6469102E3,3.4435938E4,1.1359314E4,2.7316406E3,3.3137793E2,1.079611E3,5.605703E2,0E0,0E0,0E0,0E0,0E0,0E0,0E0,0E0,0E0,0E0,0E0,0E0,0E0,0E0],"parents":[2147483647,0,0,1,1,2,2,3,3,4,4,5,5,6,6,8,8,9,9,10,10,11,11,12,12,13,13,14,14],"right_children":[2,4,6,8,10,12,14,-1,16,18,20,22,24,26,28,-1,-1,-1,-1,-1,-1,-1,-1,-1,-1,-1,-1,-1,-1],"split_conditions":[8.42E-1,-2.1018676E-1,3.31E-1,3E0,-1.836344E-1,3.8680133E-1,4.16425E0,-4.9052415E0,2E0,-5.5193923E-2,1.42E-1,1.8499593E0,3E0,-1.6820334E-1,-5.6652907E-2,-4.4711176E-1,-2.7417397E0,-2.3521526E0,-7.271063E-1,1.3775476E0,-1.6005127E-1,1.7894363E0,3.1055653E0,9.779664E-1,3.5729624E-2,-5.9080267E-1,4.865365E-1,1.0234919E0,-0E0],"split_indices":[22,7,75,12,7,92,69,0,44,20,22,71,62,7,58,0,0,0,0,0,0,0,0,0,0,0,0,0,0],"split_type":[0,0,0,0,0,0,0,0,0,0,0,0,0,0,0,0,0,0,0,0,0,0,0,0,0,0,0,0,0],"sum_hessian":[3.502E3,2.156E3,1.346E3,1.1E2,2.046E3,7.41E2,6.05E2,4.1E1,6.9E1,1.86E3,1.86E2,6.45E2,9.6E1,2.1E1,5.84E2,9E0,6E1,1.35E2,1.725E3,6.8E1,1.18E2,6.14E2,3.1E1,8.9E1,7E0,4E0,1.7E1,5.78E2,6E0],"tree_param":{"num_deleted":"0","num_feature":"97","num_nodes":"29","size_leaf_vector":"1"}},{"base_weights":[-5.1764373E-2,-8.234295E0,1.3011569E1,-3.4634987E1,-6.648485E0,1.0587272E1,1.8933258E1,-4.0843468E1,-1.8891537E1,2.6753042E0,-7.9949536E0,1.2515853E1,8.078511E0,2.3794105E0,1.5736169E1,-1.2136776E0,-4.36375E0,-1.9758446E0,-0E0,1.0766288E0,-1.5956055E-1,-8.758799E-1,7.029343E-1,1.3271068E0,6.5849566E-1,8.448742E-1,1.1036517E-1,1.5827712E0,1.0524732E-1],"categories":[],"categories_nodes":[],"categories_segments":[],"categories_sizes":[],"default_left":[0,0,0,0,0,0,0,0,1,0,0,1,0,0,0,0,0,0,0,0,0,0,0,0,0,0,0,0,0],"id":9,"left_children":[1,3,5,7,9,11,13,15,17,19,21,23,25,-1,27,-1,-1,-1,-1,-1,-1,-1,-1,-1,-1,-1,-1,-1,-1],"loss_changes":[3.7642528E5,8.79673E4,1.7166906E4,3.4158281E3,2.6078492E4,3.5535703E3,1.7658438E3,3.2203125E2,9.950254E2,9.455353E3,2.1290203E4,1.3328203E3,9.9650977E2,0E0,1.41015625E1,0E0,0E0,0E0,0E0,0E0,0E0,0E0,0E0,0E0,0E0,0E0,0E0,0E0,0E0],"parents":[2147483647,0,0,1,1,2,2,3,3,4,4,5,5,6,6,7,7,8,8,9,9,10,10,11,11,12,12,14,14],"right_children":[2,4,6,8,10,12,14,16,18,20,22,24,26,-1,28,-1,-1,-1,-1,-1,-1,-1,-1,-1,-1,-1,-1,-1,-1],"split_conditions":[8.42E-1,-2.1018676E-1,1.065E0,4.1808124E0,-1.9372164E-1,3.981314E-1,4.9694303E-2,1.8530083E-1,2.0699856E0,3.1810316E-1,-1.726926E-1,4.074338E-1,9.872926E-1,2.3794105E0,3.833484E-1,-1.2136776E0,-4.36375E0,-1.9758446E0,-0E0,1.0766288E0,-1.5956055E-1,-8.758799E-1,7.029343E-1,1.3271068E0,6.5849566E-1,8.448742E-1,1.1036517E-1,1.5827712E0,1.0524732E-1],"split_indices":[22,7,22,2,40,74,74,21,71,21,7,94,71,0,74,0,0,0,0,0,0,0,0,0,0,0,0,0,0],"split_type":[0,0,0,0,0,0,0,0,0,0,0,0,0,0,0,0,0,0,0,0,0,0,0,0,0,0,0,0,0],"sum_hessian":[3.502E3,2.156E3,1.346E3,1.1E2,2.046E3,9.76E2,3.7E2,6.7E1,4.3E1,2.56E2,1.79E3,5.27E2,4.49E2,1.2E2,2.5E2,1.1E1,5.6E1,4.1E1,2E0,8.4E1,1.72E2,1.708E3,8.2E1,4.55E2,7.2E1,4.23E2,2.6E1,2.47E2,3E0],"tree_param":{"num_deleted":"0","num_feature":"97","num_nodes":"29","size_leaf_vector":"1"}},{"base_weights":[-4.441509E-2,-7.452261E0,1.1753098E1,-3.1812233E1,-5.987938E0,9.547428E0,1.7152233E1,-4.183498E0,-2.118841E1,-4.846125E0,-1.6573418E1,1.3328373E1,8.361846E0,1.5716593E1,3.0851686E0,-3.8723536E-3,-2.2177896E0,3.1980237E-1,-6.6687924E-1,-1.9061593E0,1.11446775E-1,1.4160452E0,3.2021713E-2,3.5579303E-1,8.906097E-1,1.5782293E0,1.0281854E-1],"categories":[],"categories_nodes":[],"categories_segments":[],"categories_sizes":[],"default_left":[0,0,0,0,0,0,0,0,0,0,1,0,0,0,0,0,0,0,0,0,0,0,0,0,0,0,0],"id":10,"left_children":[1,3,5,7,9,11,13,-1,15,17,19,21,23,25,-1,-1,-1,-1,-1,-1,-1,-1,-1,-1,-1,-1,-1],"loss_changes":[3.0776112E5,7.490884E4,1.42674375E4,3.2831875E3,2.3808586E4,3.0974219E3,2.159125E3,0E0,1.4225039E3,2.765089E4,8.973965E3,2.1586172E3,1.6004336E3,2.1859375E1,0E0,0E0,0E0,0E0,0E0,0E0,0E0,0E0,0E0,0E0,0E0,0E0,0E0],"parents":[2147483647,0,0,1,1,2,2,3,3,4,4,5,5,6,6,8,8,9,9,10,10,11,11,12,12,13,13],"right_children":[2,4,6,8,10,12,14,-1,16,18,20,22,24,26,-1,-1,-1,-1,-1,-1,-1,-1,-1,-1,-1,-1,-1],"split_conditions":[8.34E-1,-2.1018676E-1,1.065E0,3E0,1.4434002E-1,-1.689393E-1,8.5E0,-4.183498E0,-8.902662E-2,3.440002E-1,9.9E-1,5.5827603E0,8.87E-1,3.833484E-1,3.0851686E0,-3.8723536E-3,-2.2177896E0,3.1980237E-1,-6.6687924E-1,-1.9061593E0,1.11446775E-1,1.4160452E0,3.2021713E-2,3.5579303E-1,8.906097E-1,1.5782293E0,1.0281854E-1],"split_indices":[22,7,22,12,38,38,3,0,58,21,85,78,22,74,0,0,0,0,0,0,0,0,0,0,0,0,0],"split_type":[0,0,0,0,0,0,0,0,0,0,0,0,0,0,0,0,0,0,0,0,0,0,0,0,0,0,0],"sum_hessian":[3.502E3,2.154E3,1.348E3,1.1E2,2.044E3,9.78E2,3.7E2,4.1E1,6.9E1,1.859E3,1.85E2,2.07E2,7.71E2,3.55E2,1.5E1,4E0,6.5E1,3.41E2,1.518E3,1.62E2,2.3E1,1.93E2,1.4E1,8.8E1,6.83E2,3.52E2,3E0],"tree_param":{"num_deleted":"0","num_feature":"97","num_nodes":"27","size_leaf_vector":"1"}},{"base_weights":[-4.1643877E-2,-7.9861813E0,9.19507E0,-5.6591773E0,-2.1795807E1,1.0294275E1,-3.3466613E0,-1.7706024E1,-5.0008135E0,-8.386578E0,-2.8013487E1,8.420963E0,1.5567697E1,-4.475159E0,4.1832175E0,-1.898086E0,-2.214446E-1,-5.771858E-1,7.160138E-1,3.694522E-1,-1.0567468E0,-3.8512344E0,-1.85613E0,-1.0400909E0,8.880178E-1,1.4193727E0,2.9000585E0,-1.9128937E-1,-6.169655E-1,6.3264096E-1,-0E0],"categories":[],"categories_nodes":[],"categories_segments":[],"categories_sizes":[],"default_left":[0,0,0,0,0,0,0,1,0,0,0,0,0,0,0,0,0,0,0,0,0,0,0,0,0,0,0,0,0,0,0],"id":11,"left_children":[1,3,5,7,9,11,13,15,17,19,21,23,25,27,29,-1,-1,-1,-1,-1,-1,-1,-1,-1,-1,-1,-1,-1,-1,-1,-1],"loss_changes":[2.5843778E5,5.935578E4,2.28575E4,1.1855016E4,1.9714305E4,1.32673125E4,1.3627734E3,9.476621E2,1.5073828E4,3.0939033E3,1.0044328E4,1.06753125E4,2.4652266E3,3.4821606E2,2.5539047E2,0E0,0E0,0E0,0E0,0E0,0E0,0E0,0E0,0E0,0E0,0E0,0E0,0E0,0E0,0E0,0E0],"parents":[2147483647,0,0,1,1,2,2,3,3,4,4,5,5,6,6,7,7,8,8,9,9,10,10,11,11,12,12,13,13,14,14],"right_children":[2,4,6,8,10,12,14,16,18,20,22,24,26,28,30,-1,-1,-1,-1,-1,-1,-1,-1,-1,-1,-1,-1,-1,-1,-1,-1],"split_conditions":[4.7403393E0,1.20305745E-2,3.8710728E-1,3.0749063E0,1.9272165E-1,1.065E0,7.61E-1,2.4332974E0,1.3752741E0,1.2433758E0,3.94775E0,-1.4391266E-1,8.5E0,-1.8716972E-1,4.724764E0,-1.898086E0,-2.214446E-1,-5.771858E-1,7.160138E-1,3.694522E-1,-1.0567468E0,-3.8512344E0,-1.85613E0,-1.0400909E0,8.880178E-1,1.4193727E0,2.9000585E0,-1.9128937E-1,-6.169655E-1,6.3264096E-1,-0E0],"split_indices":[10,40,58,2,21,22,22,89,53,71,2,20,3,7,78,0,0,0,0,0,0,0,0,0,0,0,0,0,0,0,0],"split_type":[0,0,0,0,0,0,0,0,0,0,0,0,0,0,0,0,0,0,0,0,0,0,0,0,0,0,0,0,0,0,0],"sum_hessian":[3.502E3,1.884E3,1.618E3,1.625E3,2.59E2,1.49E3,1.28E2,7E1,1.555E3,9E1,1.69E2,1.12E3,3.7E2,1.16E2,1.2E1,6.2E1,8E0,1.468E3,8.7E1,1.2E1,7.8E1,6.5E1,1.04E2,2.1E1,1.099E3,3.55E2,1.5E1,5.7E1,5.9E1,6E0,6E0],"tree_param":{"num_deleted":"0","num_feature":"97","num_nodes":"31","size_leaf_vector":"1"}},{"base_weights":[-5.079172E-2,-7.2333674E0,8.29952E0,-2.7143017E1,-5.848002E0,9.293299E0,-3.0313804E0,-3.618492E0,-1.7743433E1,-4.859065E0,-1.9953512E1,-3.5450172E0,9.859791E0,-4.0997257E0,4.0106783E0,-1.7622781E-1,-1.9403542E0,1.4580454E-1,-5.85215E-1,-2.164175E0,4.2427234E-2,-8.494153E-1,3.8994065E-1,1.3148631E0,6.705545E-1,-1.7501529E-1,-5.642104E-1,6.0891676E-1,-0E0],"categories":[],"categories_nodes":[],"categories_segments":[],"categories_sizes":[],"default_left":[0,0,0,0,0,0,0,0,0,0,0,0,0,0,0,0,0,0,0,0,0,0,0,0,0,0,0,0,0],"id":12,"left_children":[1,3,5,7,9,11,13,-1,15,17,19,21,23,25,27,-1,-1,-1,-1,-1,-1,-1,-1,-1,-1,-1,-1,-1,-1],"loss_changes":[2.1122797E5,5.032332E4,1.867629E4,3.239086E3,2.3668156E4,1.1321891E4,1.2035396E3,0E0,1.5423047E3,1.0674891E4,4.1914805E3,2.9562114E3,1.3858047E4,2.8394727E2,2.3936557E2,0E0,0E0,0E0,0E0,0E0,0E0,0E0,0E0,0E0,0E0,0E0,0E0,0E0,0E0],"parents":[2147483647,0,0,1,1,2,2,3,3,4,4,5,5,6,6,8,8,9,9,10,10,11,11,12,12,13,13,14,14],"right_children":[2,4,6,8,10,12,14,-1,16,18,20,22,24,26,28,-1,-1,-1,-1,-1,-1,-1,-1,-1,-1,-1,-1,-1,-1],"split_conditions":[4.7403393E0,-2.1018676E-1,3.8710728E-1,3E0,7.5803375E0,-7.021894E-2,7.61E-1,-3.618492E0,2E0,-1.9372164E-1,4.8275E0,5.4495625E0,2.36E-1,-1.8716972E-1,4.724764E0,-1.7622781E-1,-1.9403542E0,1.4580454E-1,-5.85215E-1,-2.164175E0,4.2427234E-2,-8.494153E-1,3.8994065E-1,1.3148631E0,6.705545E-1,-1.7501529E-1,-5.642104E-1,6.0891676E-1,-0E0],"split_indices":[10,7,58,12,24,20,22,0,44,40,2,33,75,7,78,0,0,0,0,0,0,0,0,0,0,0,0,0,0],"split_type":[0,0,0,0,0,0,0,0,0,0,0,0,0,0,0,0,0,0,0,0,0,0,0,0,0,0,0,0,0],"sum_hessian":[3.502E3,1.884E3,1.618E3,1.1E2,1.774E3,1.49E3,1.28E2,4.1E1,6.9E1,1.671E3,1.03E2,6E1,1.43E3,1.16E2,1.2E1,9E0,6E1,2.25E2,1.446E3,9.5E1,8E0,3.6E1,2.4E1,6.83E2,7.47E2,5.7E1,5.9E1,6E0,6E0],"tree_param":{"num_deleted":"0","num_feature":"97","num_nodes":"29","size_leaf_vector":"1"}},{"base_weights":[-6.5909214E-2,-6.554891E0,7.4775743E0,-2.4923307E1,-5.2769995E0,8.374807E0,-2.7443452E0,-3.000406E1,-1.2972003E1,-1.3722731E1,-3.8303955E0,6.775959E0,1.2882571E1,-3.7563574E0,3.84461E0,-3.6488343E-2,-3.0217266E0,-3.0073125E-2,-1.4892935E0,-6.182366E-1,-1.8739865E0,2.5255045E-1,-5.1751465E-1,-8.780578E-1,7.1875274E-1,1.1571469E0,2.6471632E0,-2.3579223E-1,-6.5527344E-1,5.860824E-1,-0E0],"categories":[],"categories_nodes":[],"categories_segments":[],"categories_sizes":[],"default_left":[0,0,0,0,1,0,0,0,0,0,0,0,0,0,0,0,0,0,0,0,0,0,0,0,0,0,0,0,0,0,0],"id":13,"left_children":[1,3,5,7,9,11,13,15,17,19,21,23,25,27,29,-1,-1,-1,-1,-1,-1,-1,-1,-1,-1,-1,-1,-1,-1,-1,-1],"loss_changes":[1.7239167E5,4.2840367E4,1.5217242E4,2.964711E3,2.1095086E4,9.741344E3,1.0637332E3,6.417969E1,1.1176709E3,8.276953E3,1.3302635E4,7.850086E3,3.3267344E3,2.4911462E2,2.2440552E2,0E0,0E0,0E0,0E0,0E0,0E0,0E0,0E0,0E0,0E0,0E0,0E0,0E0,0E0,0E0,0E0],"parents":[2147483647,0,0,1,1,2,2,3,3,4,4,5,5,6,6,7,7,8,8,9,9,10,10,11,11,12,12,13,13,14,14],"right_children":[2,4,6,8,10,12,14,16,18,20,22,24,26,28,30,-1,-1,-1,-1,-1,-1,-1,-1,-1,-1,-1,-1,-1,-1,-1,-1],"split_conditions":[4.7403393E0,-2.1018676E-1,3.8710728E-1,4.141971E0,7.3E-1,1.065E0,7.61E-1,-1.817E0,2E0,1.7545536E0,3.440002E-1,-1.4254332E-1,8.5E0,6.45E-1,4.724764E0,-3.6488343E-2,-3.0217266E0,-3.0073125E-2,-1.4892935E0,-6.182366E-1,-1.8739865E0,2.5255045E-1,-5.1751465E-1,-8.780578E-1,7.1875274E-1,1.1571469E0,2.6471632E0,-2.3579223E-1,-6.5527344E-1,5.860824E-1,-0E0],"split_indices":[10,7,58,2,67,22,22,93,26,4,21,20,3,57,78,0,0,0,0,0,0,0,0,0,0,0,0,0,0,0,0],"split_type":[0,0,0,0,0,0,0,0,0,0,0,0,0,0,0,0,0,0,0,0,0,0,0,0,0,0,0,0,0,0,0],"sum_hessian":[3.502E3,1.884E3,1.618E3,1.1E2,1.774E3,1.49E3,1.28E2,6.6E1,4.4E1,2.46E2,1.528E3,1.12E3,3.7E2,1.16E2,1.2E1,1E0,6.5E1,8E0,3.6E1,1.08E2,1.38E2,2.64E2,1.264E3,2.3E1,1.097E3,3.55E2,1.5E1,9.2E1,2.4E1,6E0,6E0],"tree_param":{"num_deleted":"0","num_feature":"97","num_nodes":"31","size_leaf_vector":"1"}},{"base_weights":[-7.20917E-2,-5.940766E0,6.7497697E0,-4.119947E0,-1.6749805E1,5.868933E-1,8.007111E0,-8.1715355E0,-2.63023E0,-5.9871855E0,-2.1770832E1,9.603847E0,-1.3917314E0,-3.1015923E0,8.519555E0,-9.428091E-1,2.4279395E-1,-3.182628E-1,1.0112224E0,3.7025496E-1,-7.8428936E-1,-3.080585E0,-1.38293E0,1.2620038E0,-1.3336979E-1,-3.662108E-1,1.5684594E-1,-7.231261E-1,3.2334498E-1,7.35017E-1,1.5809833E0],"categories":[],"categories_nodes":[],"categories_segments":[],"categories_sizes":[],"default_left":[0,0,0,0,0,0,0,1,0,0,0,0,0,0,0,0,0,0,0,0,0,0,0,0,0,0,0,0,0,0,0],"id":14,"left_children":[1,3,5,7,9,11,13,15,17,19,21,23,25,27,29,-1,-1,-1,-1,-1,-1,-1,-1,-1,-1,-1,-1,-1,-1,-1,-1],"loss_changes":[1.4099681E5,3.637761E4,1.248218E4,9.545457E3,1.2955555E4,5.3540366E3,8.0034297E3,6.065965E3,8.783688E3,2.1299229E3,8.137E3,2.0626216E3,1.7182377E3,2.0004646E3,9.637883E3,0E0,0E0,0E0,0E0,0E0,0E0,0E0,0E0,0E0,0E0,0E0,0E0,0E0,0E0,0E0,0E0],"parents":[2147483647,0,0,1,1,2,2,3,3,4,4,5,5,6,6,7,7,8,8,9,9,10,10,11,11,12,12,13,13,14,14],"right_children":[2,4,6,8,10,12,14,16,18,20,22,24,26,28,30,-1,-1,-1,-1,-1,-1,-1,-1,-1,-1,-1,-1,-1,-1,-1,-1],"split_conditions":[4.7403393E0,1.20305745E-2,4.901449E0,3.7735E0,1.9272165E-1,3.8401824E-1,-7.021894E-2,1.9914963E0,1.3752741E0,1.2433758E0,3.94775E0,-1.8056789E-1,8.72E-1,5.4495625E0,-1.613608E-1,-9.428091E-1,2.4279395E-1,-3.182628E-1,1.0112224E0,3.7025496E-1,-7.8428936E-1,-3.080585E0,-1.38293E0,1.2620038E0,-1.3336979E-1,-3.662108E-1,1.5684594E-1,-7.231261E-1,3.2334498E-1,7.35017E-1,1.5809833E0],"split_indices":[10,40,60,2,21,21,20,53,53,71,2,40,22,33,9,0,0,0,0,0,0,0,0,0,0,0,0,0,0,0,0],"split_type":[0,0,0,0,0,0,0,0,0,0,0,0,0,0,0,0,0,0,0,0,0,0,0,0,0,0,0,0,0,0,0],"sum_hessian":[3.502E3,1.884E3,1.618E3,1.625E3,2.59E2,2.78E2,1.34E3,4.23E2,1.202E3,9E1,1.69E2,4.4E1,2.34E2,5.6E1,1.284E3,3.8E2,4.3E1,1.16E3,4.2E1,1.2E1,7.8E1,6.5E1,1.04E2,3.4E1,1E1,1.33E2,1.01E2,3.4E1,2.2E1,1.125E3,1.59E2],"tree_param":{"num_deleted":"0","num_feature":"97","num_nodes":"31","size_leaf_vector":"1"}},{"base_weights":[-7.0432685E-2,-5.3730087E0,6.0928245E0,-2.125741E1,-4.268828E0,8.194454E0,2.7303832E0,-2.9218032E0,-1.330088E1,-9.561387E0,-2.5359719E0,-2.966381E0,8.927637E0,-2.3017507E0,4.183725E0,-0E0,-1.4285859E0,-7.049007E-1,-1.7172962E0,2.8104505E-1,-3.6992574E-1,-7.245966E-1,3.150252E-1,7.671075E-1,1.5517752E0,-3.6524534E-1,1.9031383E-1,4.4833598E-1,5.247138E-2],"categories":[],"categories_nodes":[],"categories_segments":[],"categories_sizes":[],"default_left":[0,0,0,0,1,0,0,0,0,0,0,0,0,0,0,0,0,0,0,0,0,0,0,0,0,0,0,0,0],"id":15,"left_children":[1,3,5,7,9,11,13,-1,15,17,19,21,23,25,27,-1,-1,-1,-1,-1,-1,-1,-1,-1,-1,-1,-1,-1,-1],"loss_changes":[1.1509633E5,3.2056637E4,1.1171449E4,3.2892266E3,1.5998049E4,8.466461E3,4.817641E3,0E0,1.1261865E3,6.86584E3,8.56504E3,2.0492354E3,6.336922E3,9.332582E2,4.789629E2,0E0,0E0,0E0,0E0,0E0,0E0,0E0,0E0,0E0,0E0,0E0,0E0,0E0,0E0],"parents":[2147483647,0,0,1,1,2,2,3,3,4,4,5,5,6,6,8,8,9,9,10,10,11,11,12,12,13,13,14,14],"right_children":[2,4,6,8,10,12,14,-1,16,18,20,22,24,26,28,-1,-1,-1,-1,-1,-1,-1,-1,-1,-1,-1,-1,-1,-1],"split_conditions":[4.7403393E0,-2.1018676E-1,6.34E-1,3E0,5.071544E0,-7.021894E-2,4.9685388E0,-2.9218032E0,-5.6652907E-2,7.5803375E0,3.477377E-1,5.4495625E0,-1.6145384E-1,4.031389E0,4.3206614E-1,-0E0,-1.4285859E0,-7.049007E-1,-1.7172962E0,2.8104505E-1,-3.6992574E-1,-7.245966E-1,3.150252E-1,7.671075E-1,1.5517752E0,-3.6524534E-1,1.9031383E-1,4.4833598E-1,5.247138E-2],"split_indices":[10,7,75,12,69,20,42,0,58,24,23,33,9,1,74,0,0,0,0,0,0,0,0,0,0,0,0,0,0],"split_type":[0,0,0,0,0,0,0,0,0,0,0,0,0,0,0,0,0,0,0,0,0,0,0,0,0,0,0,0,0],"sum_hessian":[3.502E3,1.884E3,1.618E3,1.1E2,1.774E3,9.85E2,6.33E2,4.1E1,6.9E1,4.25E2,1.349E3,5.8E1,9.27E2,1.39E2,4.94E2,5E0,6.4E1,3.35E2,9E1,2.37E2,1.112E3,3.4E1,2.4E1,7.98E2,1.29E2,1.08E2,3.1E1,4.52E2,4.2E1],"tree_param":{"num_deleted":"0","num_feature":"97","num_nodes":"29","size_leaf_vector":"1"}},{"base_weights":[-7.609452E-2,-4.2520404E0,6.3605533E0,-1.9497215E1,-3.3236034E0,8.516045E0,3.6495106E0,-2.6869135E0,-1.2143542E1,-1.3145909E1,-2.762029E0,7.4996676E0,1.8620348E1,4.121466E0,1.0244535E0,-1.4404844E0,-2.5230154E-1,-1.7212174E0,-6.406685E-2,6.0439922E-2,-4.2916313E-1,4.5415518E-1,8.7147087E-1,2.3092656E0,3.1615183E-1,4.3228802E-1,9.899977E-2,-5.100979E-1,1.9381207E-1],"categories":[],"categories_nodes":[],"categories_segments":[],"categories_sizes":[],"default_left":[0,0,0,0,0,0,0,0,0,0,0,1,0,0,0,0,0,0,0,0,0,0,0,0,0,0,0,0,0],"id":16,"left_children":[1,3,5,7,9,11,13,-1,15,17,19,21,23,25,27,-1,-1,-1,-1,-1,-1,-1,-1,-1,-1,-1,-1,-1,-1],"loss_changes":[9.464873E4,2.9371262E4,7.6609805E3,2.852289E3,1.0658672E4,6.16791E3,6.9054785E2,0E0,1.1859229E3,5.10126E3,1.00061045E4,2.0235586E3,3.2938496E3,2.3835742E2,6.9965106E2,0E0,0E0,0E0,0E0,0E0,0E0,0E0,0E0,0E0,0E0,0E0,0E0,0E0,0E0],"parents":[2147483647,0,0,1,1,2,2,3,3,4,4,5,5,6,6,8,8,9,9,10,10,11,11,12,12,13,13,14,14],"right_children":[2,4,6,8,10,12,14,-1,16,18,20,22,24,26,28,-1,-1,-1,-1,-1,-1,-1,-1,-1,-1,-1,-1,-1,-1],"split_conditions":[7.61E-1,-2.1018676E-1,3.31E-1,3E0,1.03866756E-1,9.9E-1,2E0,-2.6869135E0,1.6471456E0,7.400125E0,1.3040985E-1,4.3635874E0,1.06846526E-1,4.2204213E-1,4.16425E0,-1.4404844E0,-2.5230154E-1,-1.7212174E0,-6.406685E-2,6.0439922E-2,-4.2916313E-1,4.5415518E-1,8.7147087E-1,2.3092656E0,3.1615183E-1,4.3228802E-1,9.899977E-2,-5.100979E-1,1.9381207E-1],"split_indices":[22,7,75,12,23,67,44,0,53,33,56,96,56,74,69,0,0,0,0,0,0,0,0,0,0,0,0,0,0],"split_type":[0,0,0,0,0,0,0,0,0,0,0,0,0,0,0,0,0,0,0,0,0,0,0,0,0,0,0,0,0],"sum_hessian":[3.502E3,2.127E3,1.375E3,1.1E2,2.017E3,7.52E2,6.23E2,4.1E1,6.9E1,9.6E1,1.921E3,7E2,5.2E1,5.2E2,1.03E2,5.1E1,1.8E1,6.9E1,2.7E1,6E2,1.321E3,2.2E2,4.8E2,3.6E1,1.6E1,4.82E2,3.8E1,6E0,9.7E1],"tree_param":{"num_deleted":"0","num_feature":"97","num_nodes":"29","size_leaf_vector":"1"}},{"base_weights":[-7.465728E-2,-4.476615E0,5.0408554E0,-1.9976604E1,-3.6413858E0,3.594295E0,8.603096E0,-2.7073097E0,-2.4738428E1,-2.870609E0,-1.2771338E1,4.309953E0,-2.0337372E0,7.6582384E0,2.161812E0,-5.9168446E-1,3.0168942E-1,-2.64291E0,-1.6778927E-1,-3.4097818E-1,4.4845018E-1,-2.0417497E-2,-1.4692816E0,-8.3402914E-1,4.63399E-1,3.1916644E-2,-3.904488E-1,5.568506E-1,1.0354891E0],"categories":[],"categories_nodes":[],"categories_segments":[],"categories_sizes":[],"default_left":[0,0,0,0,0,0,0,0,1,0,0,0,0,0,0,0,0,0,0,0,0,0,0,0,0,0,0,0,0],"id":17,"left_children":[1,3,5,7,9,11,13,15,17,19,21,23,25,27,-1,-1,-1,-1,-1,-1,-1,-1,-1,-1,-1,-1,-1,-1,-1],"loss_changes":[7.930418E4,2.3556207E4,7.957883E3,6.7857305E3,1.2214219E4,4.851073E3,3.72075E3,7.9540955E2,2.0825977E3,6.8163945E3,3.1292422E3,4.649426E3,6.5574927E2,1.7774863E3,0E0,0E0,0E0,0E0,0E0,0E0,0E0,0E0,0E0,0E0,0E0,0E0,0E0,0E0,0E0],"parents":[2147483647,0,0,1,1,2,2,3,3,4,4,5,5,6,6,7,7,8,8,9,9,10,10,11,11,12,12,13,13],"right_children":[2,4,6,8,10,12,14,16,18,20,22,24,26,28,-1,-1,-1,-1,-1,-1,-1,-1,-1,-1,-1,-1,-1,-1,-1],"split_conditions":[4.7403393E0,3E0,9.67E-1,1.8835068E-1,7.3625937E0,3.8710728E-1,8.5E0,1.6748714E-1,9.9E-1,1.5021762E0,2E0,-1.4772792E-1,-1.8726961E-1,6.966637E-1,2.161812E0,-5.9168446E-1,3.0168942E-1,-2.64291E0,-1.6778927E-1,-3.4097818E-1,4.4845018E-1,-2.0417497E-2,-1.4692816E0,-8.3402914E-1,4.63399E-1,3.1916644E-2,-3.904488E-1,5.568506E-1,1.0354891E0],"split_indices":[10,12,22,21,60,58,3,21,67,53,26,20,40,54,0,0,0,0,0,0,0,0,0,0,0,0,0,0,0],"split_type":[0,0,0,0,0,0,0,0,0,0,0,0,0,0,0,0,0,0,0,0,0,0,0,0,0,0,0,0,0],"sum_hessian":[3.502E3,1.884E3,1.618E3,8.4E1,1.8E3,1.167E3,4.51E2,2.2E1,6.2E1,1.673E3,1.27E2,1.039E3,1.28E2,4.36E2,1.5E1,1.5E1,7E0,5.6E1,6E0,1.565E3,1.08E2,1.9E1,1.08E2,1.9E1,1.02E3,5.8E1,7E1,2.65E2,1.71E2],"tree_param":{"num_deleted":"0","num_feature":"97","num_nodes":"29","size_leaf_vector":"1"}},{"base_weights":[-7.1343035E-2,-4.054205E0,4.5565767E0,-1.6935772E1,-3.159401E0,6.2621427E0,1.8514886E0,-2.0628948E1,-8.416529E0,-7.6129274E0,-1.703273E0,-2.5888352E0,6.8501997E0,-1.9330673E0,2.9469204E0,-2.0981665E0,-4.29732E-2,-1.0349939E0,-0E0,-4.4038922E-1,-1.169678E0,5.357899E-1,-2.3329544E-1,-6.463386E-1,2.8925934E-1,5.7394344E-1,1.2718288E0,1.3061816E-2,-4.4236007E-1,2.5474173E-1,6.432858E-1],"categories":[],"categories_nodes":[],"categories_segments":[],"categories_sizes":[],"default_left":[0,0,0,0,1,0,0,0,0,0,0,0,0,0,0,0,0,0,0,0,0,0,0,0,0,0,0,0,0,0,0],"id":18,"left_children":[1,3,5,7,9,11,13,15,17,19,21,23,25,27,29,-1,-1,-1,-1,-1,-1,-1,-1,-1,-1,-1,-1,-1,-1,-1,-1],"loss_changes":[6.491418E4,2.1095123E4,7.314039E3,1.748875E3,1.1346236E4,5.3831953E3,2.7452415E3,2.371914E2,8.8808496E2,5.0246543E3,6.137254E3,1.6668563E3,5.17334E3,8.145197E2,4.52396E2,0E0,0E0,0E0,0E0,0E0,0E0,0E0,0E0,0E0,0E0,0E0,0E0,0E0,0E0,0E0,0E0],"parents":[2147483647,0,0,1,1,2,2,3,3,4,4,5,5,6,6,7,7,8,8,9,9,10,10,11,11,12,12,13,13,14,14],"right_children":[2,4,6,8,10,12,14,16,18,20,22,24,26,28,30,-1,-1,-1,-1,-1,-1,-1,-1,-1,-1,-1,-1,-1,-1,-1,-1],"split_conditions":[4.7403393E0,-2.1018676E-1,6.08E-1,4.141971E0,5.071544E0,-7.021894E-2,4.9685388E0,8E0,1.6471456E0,1.7545536E0,3.058118E-1,5.4495625E0,-1.6145384E-1,-1.6827561E-1,4.732973E-2,-2.0981665E0,-4.29732E-2,-1.0349939E0,-0E0,-4.4038922E-1,-1.169678E0,5.357899E-1,-2.3329544E-1,-6.463386E-1,2.8925934E-1,5.7394344E-1,1.2718288E0,1.3061816E-2,-4.4236007E-1,2.5474173E-1,6.432858E-1],"split_indices":[10,7,75,2,69,20,42,30,53,4,23,33,9,92,73,0,0,0,0,0,0,0,0,0,0,0,0,0,0,0,0],"split_type":[0,0,0,0,0,0,0,0,0,0,0,0,0,0,0,0,0,0,0,0,0,0,0,0,0,0,0,0,0,0,0],"sum_hessian":[3.502E3,1.884E3,1.618E3,1.1E2,1.774E3,9.82E2,6.36E2,6.6E1,4.4E1,4.25E2,1.349E3,5.8E1,9.24E2,1.39E2,4.97E2,6.4E1,2E0,3.4E1,1E1,2.51E2,1.74E2,1.03E2,1.246E3,3.4E1,2.4E1,7.95E2,1.29E2,7.9E1,6E1,4.64E2,3.3E1],"tree_param":{"num_deleted":"0","num_feature":"97","num_nodes":"31","size_leaf_vector":"1"}},{"base_weights":[-7.1377546E-2,-3.6745229E0,4.1147842E0,-1.7334303E1,-2.9392939E0,5.698774E0,1.7381109E0,-2.4379423E0,-2.1408478E1,-2.2844753E0,-1.0695987E1,-2.540688E0,6.251957E0,-1.7618611E0,2.7099724E0,-5.6104344E-1,3.0733353E-1,-2.2908537E0,-1.2154379E-1,-4.876643E-1,-7.751729E-2,-0E0,-1.2389253E0,-6.3170236E-1,2.6884094E-1,5.731689E-1,1.9321288E0,1.1902421E-2,-4.044435E-1,2.3445073E-1,5.8975285E-1],"categories":[],"categories_nodes":[],"categories_segments":[],"categories_sizes":[],"default_left":[0,0,0,0,0,0,0,0,1,0,0,0,0,0,0,0,0,0,0,0,0,0,0,0,0,0,0,0,0,0,0],"id":19,"left_children":[1,3,5,7,9,11,13,15,17,19,21,23,25,27,29,-1,-1,-1,-1,-1,-1,-1,-1,-1,-1,-1,-1,-1,-1,-1,-1],"loss_changes":[5.311952E4,1.830933E4,5.9553906E3,4.944506E3,8.81925E3,4.6171504E3,2.329421E3,7.5730176E2,1.6612539E3,6.4901885E3,2.4388809E3,1.5291509E3,4.8500312E3,6.837637E2,3.9556494E2,0E0,0E0,0E0,0E0,0E0,0E0,0E0,0E0,0E0,0E0,0E0,0E0,0E0,0E0,0E0,0E0],"parents":[2147483647,0,0,1,1,2,2,3,3,4,4,5,5,6,6,7,7,8,8,9,9,10,10,11,11,12,12,13,13,14,14],"right_children":[2,4,6,8,10,12,14,16,18,20,22,24,26,28,30,-1,-1,-1,-1,-1,-1,-1,-1,-1,-1,-1,-1,-1,-1,-1,-1],"split_conditions":[4.7403393E0,3E0,5.6E-1,1.8835068E-1,7.3625937E0,-7.021894E-2,4.9685388E0,1.6748714E-1,9.9E-1,6.4898176E0,2E0,5.4495625E0,4E0,-1.6827561E-1,1.8552792E0,-5.6104344E-1,3.0733353E-1,-2.2908537E0,-1.2154379E-1,-4.876643E-1,-7.751729E-2,-0E0,-1.2389253E0,-6.3170236E-1,2.6884094E-1,5.731689E-1,1.9321288E0,1.1902421E-2,-4.044435E-1,2.3445073E-1,5.8975285E-1],"split_indices":[10,12,75,21,60,20,42,21,67,17,26,33,77,92,53,0,0,0,0,0,0,0,0,0,0,0,0,0,0,0,0],"split_type":[0,0,0,0,0,0,0,0,0,0,0,0,0,0,0,0,0,0,0,0,0,0,0,0,0,0,0,0,0,0,0],"sum_hessian":[3.502E3,1.884E3,1.618E3,8.4E1,1.8E3,9.6E2,6.58E2,2.2E1,6.2E1,1.673E3,1.27E2,5.7E1,9.03E2,1.39E2,5.19E2,1.5E1,7E0,5.6E1,6E0,6.05E2,1.068E3,1.9E1,1.08E2,3.3E1,2.4E1,8.83E2,2E1,7.9E1,6E1,4.84E2,3.5E1],"tree_param":{"num_deleted":"0","num_feature":"97","num_nodes":"31","size_leaf_vector":"1"}},{"base_weights":[-6.973665E-2,-2.9120402E0,4.3091083E0,-2.2542436E0,-1.58499775E1,3.932363E0,1.7828491E1,-2.6701286E0,8.041011E0,-1.707656E1,7.1407986E-1,5.2630577E0,2.3030167E0,-0E0,1.8636131E0,-1.2127804E0,-2.1595016E-1,4.73147E-2,1.0444239E0,-1.8526102E0,-4.6524468E-1,-1.3769087E-1,2.7105844E-1,5.870926E-1,5.3777494E-2,-1.911373E-1,2.4951994E-1],"categories":[],"categories_nodes":[],"categories_segments":[],"categories_sizes":[],"default_left":[0,0,0,0,1,0,0,0,0,0,0,1,0,0,0,0,0,0,0,0,0,0,0,0,0,0,0],"id":20,"left_children":[1,3,5,7,9,11,13,15,17,19,21,23,25,-1,-1,-1,-1,-1,-1,-1,-1,-1,-1,-1,-1,-1,-1],"loss_changes":[4.382189E4,1.7648668E4,6.1356133E3,8.921238E3,2.3375977E3,2.754E3,3.0669824E2,9.133183E3,1.3145815E3,6.171797E2,1.1745371E2,2.0241328E3,5.6621875E2,0E0,0E0,0E0,0E0,0E0,0E0,0E0,0E0,0E0,0E0,0E0,0E0,0E0,0E0],"parents":[2147483647,0,0,1,1,2,2,3,3,4,4,5,5,6,6,7,7,8,8,9,9,10,10,11,11,12,12],"right_children":[2,4,6,8,10,12,14,16,18,20,22,24,26,-1,-1,-1,-1,-1,-1,-1,-1,-1,-1,-1,-1,-1,-1],"split_conditions":[7.61E-1,2.9E-1,1.14E0,-1.726926E-1,9.9E-1,3.31E-1,-1.9881208E-1,3.0749063E0,-7.021894E-2,9.9E-1,2.146948E-2,3.8933435E-1,4.16425E0,-0E0,1.8636131E0,-1.2127804E0,-2.1595016E-1,4.73147E-2,1.0444239E0,-1.8526102E0,-4.6524468E-1,-1.3769087E-1,2.7105844E-1,5.870926E-1,5.3777494E-2,-1.911373E-1,2.4951994E-1],"split_indices":[22,39,67,7,85,75,7,2,20,67,6,92,69,0,0,0,0,0,0,0,0,0,0,0,0,0,0],"split_type":[0,0,0,0,0,0,0,0,0,0,0,0,0,0,0,0,0,0,0,0,0,0,0,0,0,0,0],"sum_hessian":[3.502E3,2.127E3,1.375E3,2.036E3,9.1E1,1.351E3,2.4E1,1.965E3,7.1E1,8.5E1,6E0,7.28E2,6.23E2,2E0,2.2E1,8.8E1,1.877E3,2.1E1,5E1,7.1E1,1.4E1,2E0,4E0,6.41E2,8.7E1,2.1E1,6.02E2],"tree_param":{"num_deleted":"0","num_feature":"97","num_nodes":"27","size_leaf_vector":"1"}},{"base_weights":[-6.1795373E-2,-3.0376534E0,3.3945272E0,-1.3797349E1,-2.2912745E0,3.1422598E0,1.7913007E0,-1.5131149E1,-2.276449E0,-6.3219986E0,-1.2387013E0,3.5944142E0,-1.87855E0,-1.6664184E0,-3.6791635E-1,-3.803235E-1,1.2892269E-1,-3.2074007E-1,-9.647131E-1,-1.7704889E-1,5.829801E-1,5.8617175E-1,2.5928664E-1,3.3863157E-2,-3.653336E-1],"categories":[],"categories_nodes":[],"categories_segments":[],"categories_sizes":[],"default_left":[0,0,0,0,1,0,0,0,0,0,0,0,0,0,0,0,0,0,0,0,0,0,0,0,0],"id":21,"left_children":[1,3,5,7,9,11,-1,13,15,17,19,21,23,-1,-1,-1,-1,-1,-1,-1,-1,-1,-1,-1,-1],"loss_changes":[3.622231E4,1.4733334E4,5.1891855E3,1.325457E3,7.4149375E3,3.7464844E3,0E0,1.026875E3,2.1027303E2,3.3421387E3,5.4341494E3,3.135623E3,5.885514E2,0E0,0E0,0E0,0E0,0E0,0E0,0E0,0E0,0E0,0E0,0E0,0E0],"parents":[2147483647,0,0,1,1,2,2,3,3,4,4,5,5,7,7,8,8,9,9,10,10,11,11,12,12],"right_children":[2,4,6,8,10,12,-1,14,16,18,20,22,24,-1,-1,-1,-1,-1,-1,-1,-1,-1,-1,-1,-1],"split_conditions":[4.7403393E0,-2.1018676E-1,1.028E1,5.53E-1,4.7221875E0,3.8710728E-1,1.7913007E0,4E0,4.9694303E-2,1.7545536E0,1.4117708E0,4.1758084E-1,-1.8726961E-1,-1.6664184E0,-3.6791635E-1,-3.803235E-1,1.2892269E-1,-3.2074007E-1,-9.647131E-1,-1.7704889E-1,5.829801E-1,5.8617175E-1,2.5928664E-1,3.3863157E-2,-3.653336E-1],"split_indices":[10,7,52,22,69,58,0,12,74,4,53,21,40,0,0,0,0,0,0,0,0,0,0,0,0],"split_type":[0,0,0,0,0,0,0,0,0,0,0,0,0,0,0,0,0,0,0,0,0,0,0,0,0],"sum_hessian":[3.502E3,1.884E3,1.618E3,1.1E2,1.774E3,1.603E3,1.5E1,9.5E1,1.5E1,3.55E2,1.419E3,1.475E3,1.28E2,7.9E1,1.6E1,1.2E1,3E0,1.95E2,1.6E2,1.328E3,9.1E1,4.34E2,1.041E3,5.8E1,7E1],"tree_param":{"num_deleted":"0","num_feature":"97","num_nodes":"25","size_leaf_vector":"1"}},{"base_weights":[-5.8065016E-2,-2.4105353E0,3.5649023E0,-1.43974695E1,-1.8450813E0,3.2213738E0,1.5973532E1,-1.984714E0,-1.7775713E1,-2.5977938E0,3.0590777E0,2.3289163E0,5.089069E0,1.3884227E-3,1.6654171E0,-5.229661E-1,3.36651E-1,-1.9035593E0,-8.438845E-2,-6.9534147E-1,-1.593477E-1,7.725658E-1,-4.3746337E-1,6.907295E-1,1.9895276E-1,8.861806E-1,3.8373208E-1],"categories":[],"categories_nodes":[],"categories_segments":[],"categories_sizes":[],"default_left":[0,0,0,0,0,0,0,0,1,0,0,0,0,0,0,0,0,0,0,0,0,0,0,0,0,0,0],"id":22,"left_children":[1,3,5,7,9,11,13,15,17,19,21,23,25,-1,-1,-1,-1,-1,-1,-1,-1,-1,-1,-1,-1,-1,-1],"loss_changes":[3.0006896E4,1.40566455E4,5.1973496E3,3.3913281E3,7.6533433E3,2.0758672E3,2.0033984E2,7.5035046E2,1.1764766E3,7.620824E3,9.945922E3,1.2388896E3,1.5541895E3,0E0,0E0,0E0,0E0,0E0,0E0,0E0,0E0,0E0,0E0,0E0,0E0,0E0,0E0],"parents":[2147483647,0,0,1,1,2,2,3,3,4,4,5,5,6,6,7,7,8,8,9,9,10,10,11,11,12,12],"right_children":[2,4,6,8,10,12,14,16,18,20,22,24,26,-1,-1,-1,-1,-1,-1,-1,-1,-1,-1,-1,-1,-1,-1],"split_conditions":[7.61E-1,3E0,1.14E0,1.8835068E-1,1.1825962E0,1.046E0,-1.9881208E-1,1.6748714E-1,9.9E-1,1.2473966E0,1.9459993E-2,3.6749583E-1,1.2422236E0,1.3884227E-3,1.6654171E0,-5.229661E-1,3.36651E-1,-1.9035593E0,-8.438845E-2,-6.9534147E-1,-1.593477E-1,7.725658E-1,-4.3746337E-1,6.907295E-1,1.9895276E-1,8.861806E-1,3.8373208E-1],"split_indices":[22,12,67,21,53,22,7,21,67,19,40,21,53,0,0,0,0,0,0,0,0,0,0,0,0,0,0],"split_type":[0,0,0,0,0,0,0,0,0,0,0,0,0,0,0,0,0,0,0,0,0,0,0,0,0,0,0],"sum_hessian":[3.502E3,2.127E3,1.375E3,8.4E1,2.043E3,1.351E3,2.4E1,2.2E1,6.2E1,1.777E3,2.66E2,9.33E2,4.18E2,2E0,2.2E1,1.5E1,7E0,5.6E1,6E0,3.2E2,1.457E3,1.64E2,1.02E2,4.9E1,8.84E2,8.7E1,3.31E2],"tree_param":{"num_deleted":"0","num_feature":"97","num_nodes":"27","size_leaf_vector":"1"}},{"base_weights":[-4.8179343E-2,-2.5319393E0,2.8355572E0,-1.9783542E0,-1.4251929E1,2.6054697E0,1.614658E0,-4.738169E0,-5.81992E-1,-1.6477648E1,-2.097204E0,1.011634E1,2.3040736E0,-9.987947E-1,-3.1661615E-1,-9.836402E-2,7.066395E-1,-1.6760327E0,-0E0,-4.1274247E-1,9.994354E-2,1.0494995E0,-0E0,-5.9795756E-2,3.2287917E-1],"categories":[],"categories_nodes":[],"categories_segments":[],"categories_sizes":[],"default_left":[0,0,0,0,0,0,0,0,0,0,0,0,0,0,0,0,0,0,0,0,0,0,0,0,0],"id":23,"left_children":[1,3,5,7,9,11,-1,13,15,17,19,21,23,-1,-1,-1,-1,-1,-1,-1,-1,-1,-1,-1,-1],"loss_changes":[2.5223492E4,1.1844038E4,4.3778584E3,6.9368135E3,1.7140801E3,3.2941328E3,0E0,4.5698604E3,3.7656885E3,3.58E2,2.2970236E2,2.3237695E2,4.2453887E3,0E0,0E0,0E0,0E0,0E0,0E0,0E0,0E0,0E0,0E0,0E0,0E0],"parents":[2147483647,0,0,1,1,2,2,3,3,4,4,5,5,7,7,8,8,9,9,10,10,11,11,12,12],"right_children":[2,4,6,8,10,12,-1,14,16,18,20,22,24,-1,-1,-1,-1,-1,-1,-1,-1,-1,-1,-1,-1],"split_conditions":[4.7403393E0,2.83E-1,1.028E1,6.452125E0,9.9E-1,-1.873934E-1,1.614658E0,6.34E-1,1.4117708E0,7.8660727E0,7.638772E0,3.8933435E-1,8.88E-1,-9.987947E-1,-3.1661615E-1,-9.836402E-2,7.066395E-1,-1.6760327E0,-0E0,-4.1274247E-1,9.994354E-2,1.0494995E0,-0E0,-5.9795756E-2,3.2287917E-1],"split_indices":[10,39,52,17,67,40,0,22,53,16,33,21,22,0,0,0,0,0,0,0,0,0,0,0,0],"split_type":[0,0,0,0,0,0,0,0,0,0,0,0,0,0,0,0,0,0,0,0,0,0,0,0,0],"sum_hessian":[3.502E3,1.884E3,1.618E3,1.811E3,7.3E1,1.603E3,1.5E1,5.98E2,1.213E3,5.8E1,1.5E1,4.8E1,1.555E3,1.24E2,4.74E2,1.162E3,5.1E1,5.7E1,1E0,9E0,6E0,4.6E1,2E0,3.74E2,1.181E3],"tree_param":{"num_deleted":"0","num_feature":"97","num_nodes":"25","size_leaf_vector":"1"}},{"base_weights":[-4.2658485E-2,-2.2939043E0,2.5705395E0,-1.7849495E0,-1.3063394E1,2.353003E0,1.5177784E0,-9.529588E0,-1.3592128E0,-1.5072743E1,-1.9726062E0,2.014535E0,8.229035E0,3.1743464E-1,-1.0275714E0,-1.7109342E-1,6.023477E-1,-1.920257E0,-7.131223E-1,-3.9319184E-1,9.61956E-2,-9.035387E-2,2.8919777E-1,1.2057132E0,2.3114088E-1],"categories":[],"categories_nodes":[],"categories_segments":[],"categories_sizes":[],"default_left":[0,0,0,0,0,0,0,0,0,0,0,0,0,0,0,0,0,0,0,0,0,0,0,0,0],"id":24,"left_children":[1,3,5,7,9,11,-1,13,15,17,19,21,23,-1,-1,-1,-1,-1,-1,-1,-1,-1,-1,-1,-1],"loss_changes":[2.0717125E4,9.999703E3,3.9324082E3,5.765745E3,1.3818965E3,2.9398018E3,0E0,1.2692441E3,4.5755063E3,5.974873E2,2.1126602E2,3.9890947E3,1.4578442E3,0E0,0E0,0E0,0E0,0E0,0E0,0E0,0E0,0E0,0E0,0E0,0E0],"parents":[2147483647,0,0,1,1,2,2,3,3,4,4,5,5,7,7,8,8,9,9,10,10,11,11,12,12],"right_children":[2,4,6,8,10,12,-1,14,16,18,20,22,24,-1,-1,-1,-1,-1,-1,-1,-1,-1,-1,-1,-1],"split_conditions":[4.7403393E0,2.83E-1,1.028E1,3.0749063E0,9.9E-1,5.7382655E0,1.5177784E0,-1.0264619E-1,1.8504043E0,3.848625E0,7.638772E0,8.88E-1,1.4379716E0,3.1743464E-1,-1.0275714E0,-1.7109342E-1,6.023477E-1,-1.920257E0,-7.131223E-1,-3.9319184E-1,9.61956E-2,-9.035387E-2,2.8919777E-1,1.2057132E0,2.3114088E-1],"split_indices":[10,39,52,2,67,33,0,91,35,2,33,22,71,0,0,0,0,0,0,0,0,0,0,0,0],"split_type":[0,0,0,0,0,0,0,0,0,0,0,0,0,0,0,0,0,0,0,0,0,0,0,0,0],"sum_hessian":[3.502E3,1.884E3,1.618E3,1.811E3,7.3E1,1.603E3,1.5E1,8.2E1,1.729E3,5.8E1,1.5E1,1.53E3,7.3E1,2E0,8E1,1.659E3,7E1,2.8E1,3E1,9E0,6E0,3.51E2,1.179E3,3.7E1,3.6E1],"tree_param":{"num_deleted":"0","num_feature":"97","num_nodes":"25","size_leaf_vector":"1"}},{"base_weights":[-3.798078E-2,-2.0819833E0,2.3340836E0,-1.1753708E1,-1.5626674E0,2.1284626E0,1.4267117E0,-1.0163991E0,-1.4754497E1,-2.0102382E0,4.9406586E0,8.733763E0,1.8636752E0,-4.145429E-1,3.594762E-1,-1.57603E0,-7.589998E-2,-4.8946562E-1,-7.9207495E-2,8.910884E-1,-2.740083E-1,-0E0,9.285693E-1,2.3357442E-1,-2.2227123E-1],"categories":[],"categories_nodes":[],"categories_segments":[],"categories_sizes":[],"default_left":[0,0,0,0,0,0,0,0,1,0,0,0,0,0,0,0,0,0,0,0,0,0,0,0,0],"id":25,"left_children":[1,3,5,7,9,11,-1,13,15,17,19,21,23,-1,-1,-1,-1,-1,-1,-1,-1,-1,-1,-1,-1],"loss_changes":[1.7074025E4,9.196121E3,3.5269678E3,2.721044E3,5.338382E3,2.5523936E3,0E0,6.162357E2,7.28708E2,5.884668E3,3.9041978E3,2.319419E2,3.0720205E3,0E0,0E0,0E0,0E0,0E0,0E0,0E0,0E0,0E0,0E0,0E0,0E0],"parents":[2147483647,0,0,1,1,2,2,3,3,4,4,5,5,7,7,8,8,9,9,10,10,11,11,12,12],"right_children":[2,4,6,8,10,12,-1,14,16,18,20,22,24,-1,-1,-1,-1,-1,-1,-1,-1,-1,-1,-1,-1],"split_conditions":[4.7403393E0,3E0,1.028E1,1.8835068E-1,1.5021762E0,-1.873934E-1,1.4267117E0,1.6748714E-1,9.9E-1,6.452125E0,0E0,-2.0010482E-1,1.3040985E-1,-4.145429E-1,3.594762E-1,-1.57603E0,-7.589998E-2,-4.8946562E-1,-7.9207495E-2,8.910884E-1,-2.740083E-1,-0E0,9.285693E-1,2.3357442E-1,-2.2227123E-1],"split_indices":[10,12,52,21,53,40,0,21,67,17,40,74,56,0,0,0,0,0,0,0,0,0,0,0,0],"split_type":[0,0,0,0,0,0,0,0,0,0,0,0,0,0,0,0,0,0,0,0,0,0,0,0,0],"sum_hessian":[3.502E3,1.884E3,1.618E3,8.4E1,1.8E3,1.603E3,1.5E1,2.2E1,6.2E1,1.692E3,1.08E2,4.8E1,1.555E3,1.5E1,7E0,5.6E1,6E0,4.91E2,1.201E3,7.1E1,3.7E1,4E0,4.4E1,1.4E3,1.55E2],"tree_param":{"num_deleted":"0","num_feature":"97","num_nodes":"25","size_leaf_vector":"1"}},{"base_weights":[-3.230485E-2,6.091006E-1,-6.662396E0,2.6216936E0,-1.1241945E0,-8.527523E0,1.1977818E-1,2.2890275E0,1.2356742E1,-7.522555E-1,-7.478706E0,1.3021511E-1,-9.219591E0,-4.0100203E0,3.9022596E0,-7.059759E-1,2.53567E-1,-0E0,1.5369426E0,2.8477007E-1,-1.21497296E-1,-1.192573E0,-3.7010258E-1,-2.890686E-1,2.8460374E-1,-1.040503E0,-2.0242508E-1,-5.465528E-1,9.6419625E-2,5.2218664E-1,-2.6951E-1],"categories":[],"categories_nodes":[],"categories_segments":[],"categories_sizes":[],"default_left":[0,0,0,0,0,0,0,0,0,0,0,0,0,0,0,0,0,0,0,0,0,0,0,0,0,0,0,0,0,0,0],"id":26,"left_children":[1,3,5,7,9,11,13,15,17,19,21,23,25,27,29,-1,-1,-1,-1,-1,-1,-1,-1,-1,-1,-1,-1,-1,-1,-1,-1],"loss_changes":[1.5036161E4,1.1242269E4,4.0409717E3,4.399327E3,3.9479065E3,1.5768691E3,1.3425911E3,3.4887231E3,1.7164146E3,2.7601162E3,9.647051E2,3.0333774E2,1.6183672E3,3.8731213E2,5.664744E2,0E0,0E0,0E0,0E0,0E0,0E0,0E0,0E0,0E0,0E0,0E0,0E0,0E0,0E0,0E0,0E0],"parents":[2147483647,0,0,1,1,2,2,3,3,4,4,5,5,6,6,7,7,8,8,9,9,10,10,11,11,12,12,13,13,14,14],"right_children":[2,4,6,8,10,12,14,16,18,20,22,24,26,28,30,-1,-1,-1,-1,-1,-1,-1,-1,-1,-1,-1,-1,-1,-1,-1,-1],"split_conditions":[1.20305745E-2,9.3470705E-1,4.4961877E0,6.427933E0,1.5277689E0,1.51142E-1,7E0,3E0,4.54775E0,3.782826E-1,-1.920091E-1,3.4257166E0,3.9015489E0,1.6471456E0,6.500238E-2,-7.059759E-1,2.53567E-1,-0E0,1.5369426E0,2.8477007E-1,-1.21497296E-1,-1.192573E0,-3.7010258E-1,-2.890686E-1,2.8460374E-1,-1.040503E0,-2.0242508E-1,-5.465528E-1,9.6419625E-2,5.2218664E-1,-2.6951E-1],"split_indices":[40,54,2,42,89,21,65,12,69,23,40,78,50,53,55,0,0,0,0,0,0,0,0,0,0,0,0,0,0,0,0],"split_type":[0,0,0,0,0,0,0,0,0,0,0,0,0,0,0,0,0,0,0,0,0,0,0,0,0,0,0,0,0,0,0],"sum_hessian":[3.502E3,3.2E3,3.02E2,1.481E3,1.719E3,2.36E2,6.6E1,1.445E3,3.6E1,1.636E3,8.3E1,1.7E1,2.19E2,3E1,3.6E1,2.9E1,1.416E3,9E0,2.7E1,1.78E2,1.458E3,2.7E1,5.6E1,6E0,1.1E1,1.83E2,3.6E1,2.4E1,6E0,3.3E1,3E0],"tree_param":{"num_deleted":"0","num_feature":"97","num_nodes":"31","size_leaf_vector":"1"}},{"base_weights":[-3.466287E-2,5.4657763E-1,-6.0456734E0,2.366778E0,-1.0204464E0,-7.7295465E0,6.866224E-2,9.995512E-1,4.479792E0,-6.7542964E-1,-6.9096193E0,-5.8774714E0,-1.317626E1,-3.6965504E0,3.545225E0,1.455252E-1,-3.5953793E-1,3.170606E-1,9.5779437E-1,-1.0952073E-1,2.836078E-1,-1.1055477E0,-3.387E-1,-2.684526E-1,-9.257888E-1,-3.5562485E-2,-1.3674372E0,-5.079724E-1,9.280386E-2,4.8211184E-1,-2.632904E-1],"categories":[],"categories_nodes":[],"categories_segments":[],"categories_sizes":[],"default_left":[0,0,0,0,0,0,0,0,0,0,0,0,0,0,0,0,0,0,0,0,0,0,0,0,0,0,0,0,0,0,0],"id":27,"left_children":[1,3,5,7,9,11,13,15,17,19,21,23,25,27,29,-1,-1,-1,-1,-1,-1,-1,-1,-1,-1,-1,-1,-1,-1,-1,-1],"loss_changes":[1.2358412E4,9.19349E3,3.2941953E3,4.207883E3,3.3905718E3,1.5166104E3,1.1243776E3,1.9594149E3,3.440005E3,2.4399429E3,8.393242E2,1.823123E3,1.4953613E2,3.4452313E2,5.1141882E2,0E0,0E0,0E0,0E0,0E0,0E0,0E0,0E0,0E0,0E0,0E0,0E0,0E0,0E0,0E0,0E0],"parents":[2147483647,0,0,1,1,2,2,3,3,4,4,5,5,6,6,7,7,8,8,9,9,10,10,11,11,12,12,13,13,14,14],"right_children":[2,4,6,8,10,12,14,16,18,20,22,24,26,28,30,-1,-1,-1,-1,-1,-1,-1,-1,-1,-1,-1,-1,-1,-1,-1,-1],"split_conditions":[1.20305745E-2,9.3470705E-1,4.4961877E0,3.34175E0,1.5277689E0,3.64E-1,7E0,2E0,1.0915617E0,7.783875E0,-1.920091E-1,6.402349E0,7.810441E-2,1.6471456E0,6.500238E-2,1.455252E-1,-3.5953793E-1,3.170606E-1,9.5779437E-1,-1.0952073E-1,2.836078E-1,-1.1055477E0,-3.387E-1,-2.684526E-1,-9.257888E-1,-3.5562485E-2,-1.3674372E0,-5.079724E-1,9.280386E-2,4.8211184E-1,-2.632904E-1],"split_indices":[40,54,2,2,89,39,65,44,18,17,40,60,40,53,55,0,0,0,0,0,0,0,0,0,0,0,0,0,0,0,0],"split_type":[0,0,0,0,0,0,0,0,0,0,0,0,0,0,0,0,0,0,0,0,0,0,0,0,0,0,0,0,0,0,0],"sum_hessian":[3.502E3,3.2E3,3.02E2,1.481E3,1.719E3,2.36E2,6.6E1,9.11E2,5.7E2,1.636E3,8.3E1,1.93E2,4.3E1,3E1,3.6E1,8.37E2,7.4E1,4.68E2,1.02E2,1.47E3,1.66E2,2.7E1,5.6E1,1.1E2,8.3E1,3E0,4E1,2.4E1,6E0,3.3E1,3E0],"tree_param":{"num_deleted":"0","num_feature":"97","num_nodes":"31","size_leaf_vector":"1"}},{"base_weights":[-4.060168E-2,-1.6516695E0,1.79604E0,-9.803092E0,-1.2100258E0,1.6086692E0,1.2879218E0,-5.526085E-1,-1.2413989E1,-7.705975E-1,-6.39883E0,3.3346155E0,7.595373E-1,-3.5276923E-1,4.0022832E-1,-1.3366216E0,-1.0231114E-2,-1.15289904E-1,4.2641172E-1,2.6834924E-2,-7.579846E-1,-5.737196E-1,3.803767E-1,-3.738507E-1,1.1038589E-1],"categories":[],"categories_nodes":[],"categories_segments":[],"categories_sizes":[],"default_left":[0,0,0,0,0,0,0,0,1,0,0,0,0,0,0,0,0,0,0,0,0,0,0,0,0],"id":28,"left_children":[1,3,5,7,9,11,-1,13,15,17,19,21,23,-1,-1,-1,-1,-1,-1,-1,-1,-1,-1,-1,-1],"loss_changes":[1.042007E4,6.535695E3,3.0598975E3,2.0720273E3,3.9717898E3,2.3196562E3,0E0,5.7008026E2,6.957324E2,3.22858E3,1.1721997E3,2.4546035E3,1.7309626E3,0E0,0E0,0E0,0E0,0E0,0E0,0E0,0E0,0E0,0E0,0E0,0E0],"parents":[2147483647,0,0,1,1,2,2,3,3,4,4,5,5,7,7,8,8,9,9,10,10,11,11,12,12],"right_children":[2,4,6,8,10,12,-1,14,16,18,20,22,24,-1,-1,-1,-1,-1,-1,-1,-1,-1,-1,-1,-1],"split_conditions":[-1.8836619E-1,3E0,1.028E1,1.8835068E-1,7.3625937E0,4.1758084E-1,1.2879218E0,-1.1483605E-2,9.9E-1,1.5021762E0,2E0,-1.4772792E-1,-1.7468108E-1,-3.5276923E-1,4.0022832E-1,-1.3366216E0,-1.0231114E-2,-1.15289904E-1,4.2641172E-1,2.6834924E-2,-7.579846E-1,-5.737196E-1,3.803767E-1,-3.738507E-1,1.1038589E-1],"split_indices":[7,12,52,21,60,21,0,40,67,53,26,20,7,0,0,0,0,0,0,0,0,0,0,0,0],"split_type":[0,0,0,0,0,0,0,0,0,0,0,0,0,0,0,0,0,0,0,0,0,0,0,0,0],"sum_hessian":[3.502E3,1.869E3,1.633E3,8.4E1,1.785E3,1.618E3,1.5E1,2.2E1,6.2E1,1.658E3,1.27E2,5.2E2,1.098E3,1.6E1,6E0,5.6E1,6E0,1.55E3,1.08E2,1.9E1,1.08E2,1.9E1,5.01E2,6.9E1,1.029E3],"tree_param":{"num_deleted":"0","num_feature":"97","num_nodes":"25","size_leaf_vector":"1"}},{"base_weights":[-3.907085E-2,4.615995E-1,-5.2209973E0,1.7002406E0,-1.2545372E0,-1.0047959E1,-3.0197344E0,3.2400055E0,-8.74169E-2,-7.652559E0,-8.3639395E-1,-1.2572493E1,-3.5973232E0,-7.2738357E0,-5.1471686E-1,2.9066706E-1,1.3523394E0,6.2653154E-2,-1.7421438E-1,-1.2072595E0,-4.7342792E-1,-2.0945735E-2,-2.831153E-1,4.3945312E-3,-1.2956758E0,-5.414653E-1,8.304552E-2,-0E0,-7.8875816E-1,2.6762554E-1,-4.6901175E-1],"categories":[],"categories_nodes":[],"categories_segments":[],"categories_sizes":[],"default_left":[0,0,0,0,0,0,0,0,0,0,0,0,1,0,0,0,0,0,0,0,0,0,0,0,0,0,0,0,0,0,0],"id":29,"left_children":[1,3,5,7,9,11,13,15,17,19,21,23,25,27,29,-1,-1,-1,-1,-1,-1,-1,-1,-1,-1,-1,-1,-1,-1,-1,-1],"loss_changes":[9.183356E3,6.849213E3,2.8810303E3,5.187173E3,3.4573958E3,8.8423535E2,2.3356926E3,2.9012803E3,1.0534243E3,2.9229248E2,1.5619147E3,4.3055273E2,4.2072437E2,3.9905273E2,2.2374612E3,0E0,0E0,0E0,0E0,0E0,0E0,0E0,0E0,0E0,0E0,0E0,0E0,0E0,0E0,0E0,0E0],"parents":[2147483647,0,0,1,1,2,2,3,3,4,4,5,5,6,6,7,7,8,8,9,9,10,10,11,11,12,12,13,13,14,14],"right_children":[2,4,6,8,10,12,14,16,18,20,22,24,26,28,30,-1,-1,-1,-1,-1,-1,-1,-1,-1,-1,-1,-1,-1,-1,-1,-1],"split_conditions":[1.20305745E-2,1.3040985E-1,5.5530624E0,3.70136E-1,3.24275E0,3.51E-1,-1.9996087E-1,1.14E0,3.6744148E-1,6.21E-1,4.0489691E-1,-2.3505852E-1,2.9161503E0,2E0,7.2077723E0,2.9066706E-1,1.3523394E0,6.2653154E-2,-1.7421438E-1,-1.2072595E0,-4.7342792E-1,-2.0945735E-2,-2.831153E-1,4.3945312E-3,-1.2956758E0,-5.414653E-1,8.304552E-2,-0E0,-7.8875816E-1,2.6762554E-1,-4.6901175E-1],"split_indices":[40,56,33,74,2,22,9,67,94,22,21,92,86,26,60,0,0,0,0,0,0,0,0,0,0,0,0,0,0,0,0],"split_type":[0,0,0,0,0,0,0,0,0,0,0,0,0,0,0,0,0,0,0,0,0,0,0,0,0,0,0,0,0,0,0],"sum_hessian":[3.502E3,3.2E3,3.02E2,1.862E3,1.338E3,8.2E1,2.2E2,9.99E2,8.63E2,7E1,1.268E3,5.1E1,3.1E1,7.3E1,1.47E2,9.81E2,1.8E1,6.03E2,2.6E2,1.4E1,5.6E1,9.77E2,2.91E2,1E0,5E1,2.2E1,9E0,6E0,6.7E1,8.4E1,6.3E1],"tree_param":{"num_deleted":"0","num_feature":"97","num_nodes":"31","size_leaf_vector":"1"}},{"base_weights":[-4.4722926E-2,4.1309234E-1,-4.7855554E0,1.4577888E0,-1.2701182E0,-5.640767E0,3.5719876E0,2.6543257E0,-2.028948E-2,-7.8873296E0,-8.491583E-1,-3.6443849E0,-9.6502285E0,-4.5523964E-2,4.278452E0,2.3432247E-1,1.1192148E0,6.240613E-2,-1.574379E-1,-4.0908527E-1,-1.2836506E0,-2.6604763E-1,-6.931424E-3,-5.9742486E-1,-8.9891935E-3,-1.0871341E0,-1.0378074E-1,4.5776483E-1,-0E0],"categories":[],"categories_nodes":[],"categories_segments":[],"categories_sizes":[],"default_left":[0,0,1,0,0,0,0,0,0,0,0,1,0,0,0,0,0,0,0,0,0,0,0,0,0,0,0,0,0],"id":30,"left_children":[1,3,5,7,9,11,13,15,17,19,21,23,25,-1,27,-1,-1,-1,-1,-1,-1,-1,-1,-1,-1,-1,-1,-1,-1],"loss_changes":[7.6860283E3,5.664998E3,2.4521855E3,3.5445757E3,3.27471E3,1.8206338E3,1.5444244E2,2.5320957E3,9.1656366E2,6.396533E2,1.6235364E3,1.6731001E3,6.935576E2,0E0,6.3835938E1,0E0,0E0,0E0,0E0,0E0,0E0,0E0,0E0,0E0,0E0,0E0,0E0,0E0,0E0],"parents":[2147483647,0,0,1,1,2,2,3,3,4,4,5,5,6,6,7,7,8,8,9,9,10,10,11,11,12,12,14,14],"right_children":[2,4,6,8,10,12,14,16,18,20,22,24,26,-1,28,-1,-1,-1,-1,-1,-1,-1,-1,-1,-1,-1,-1,-1,-1],"split_conditions":[1.20305745E-2,2.517552E-1,9.9E-1,3.70136E-1,1.0215455E0,3.04E-1,-2.255081E-1,1.14E0,3.6744148E-1,-3.04E-1,3.86175E0,4.6118765E0,4E0,-4.5523964E-2,1.33E0,2.3432247E-1,1.1192148E0,6.240613E-2,-1.574379E-1,-4.0908527E-1,-1.2836506E0,-2.6604763E-1,-6.931424E-3,-5.9742486E-1,-8.9891935E-3,-1.0871341E0,-1.0378074E-1,4.5776483E-1,-0E0],"split_indices":[40,56,85,74,19,39,7,67,94,75,2,78,12,0,85,0,0,0,0,0,0,0,0,0,0,0,0,0,0],"split_type":[0,0,0,0,0,0,0,0,0,0,0,0,0,0,0,0,0,0,0,0,0,0,0,0,0,0,0,0,0],"sum_hessian":[3.502E3,3.2E3,3.02E2,1.979E3,1.221E3,2.78E2,2.4E1,1.093E3,8.86E2,6.1E1,1.16E3,2E2,7.8E1,2E0,2.2E1,1.068E3,2.5E1,6.26E2,2.6E2,4.6E1,1.5E1,3.38E2,8.22E2,1.15E2,8.5E1,6.5E1,1.3E1,2.1E1,1E0],"tree_param":{"num_deleted":"0","num_feature":"97","num_nodes":"29","size_leaf_vector":"1"}},{"base_weights":[-4.7773693E-2,-8.327959E0,1.7650144E-1,-5.699682E-1,-1.0480405E1,1.3397362E0,-1.433694E0,-3.5385778E0,3.9852524E0,-1.1340762E1,-0E0,2.380554E0,-1.8530086E-2,-7.065913E-1,-4.840065E0,-0E0,-3.8097078E-1,4.288778E-1,-0E0,-1.1433607E0,-0E0,-1.791166E-1,1.5814577E-1,2.6364693E-1,-4.3427187E-1,5.1204145E-2,-1.2928995E-1,-2.38776E-1,-4.075764E-3,1.7739111E-1,-5.943228E-1],"categories":[],"categories_nodes":[],"categories_segments":[],"categories_sizes":[],"default_left":[0,0,0,0,1,0,0,0,1,1,0,0,0,0,0,0,0,0,0,0,0,0,0,0,0,0,0,0,0,0,0],"id":31,"left_children":[1,3,5,7,9,11,13,15,17,19,21,23,25,27,29,-1,-1,-1,-1,-1,-1,-1,-1,-1,-1,-1,-1,-1,-1,-1,-1],"loss_changes":[6.618136E3,1.3994346E3,6.4390327E3,5.6928E2,5.8005176E2,2.8500632E3,3.4744224E3,2.2773071E1,2.1788422E1,8.828125E0,7.492796E1,2.052019E3,6.047026E2,1.3179961E3,1.963898E3,0E0,0E0,0E0,0E0,0E0,0E0,0E0,0E0,0E0,0E0,0E0,0E0,0E0,0E0,0E0,0E0],"parents":[2147483647,0,0,1,1,2,2,3,3,4,4,5,5,6,6,7,7,8,8,9,9,10,10,11,11,12,12,13,13,14,14],"right_children":[2,4,6,8,10,12,14,16,18,20,22,24,26,28,30,-1,-1,-1,-1,-1,-1,-1,-1,-1,-1,-1,-1,-1,-1,-1,-1],"split_conditions":[3E0,1.8835068E-1,1.5255752E-1,-1.1483605E-2,9.9E-1,3.70136E-1,8.919773E-1,3.0528126E0,3.1190183E0,1.33E0,3.9330685E0,8.156813E0,3.6744148E-1,3.86175E0,1.49E-1,-0E0,-3.8097078E-1,4.288778E-1,-0E0,-1.1433607E0,-0E0,-1.791166E-1,1.5814577E-1,2.6364693E-1,-4.3427187E-1,5.1204145E-2,-1.2928995E-1,-2.38776E-1,-4.075764E-3,1.7739111E-1,-5.943228E-1],"split_indices":[12,21,56,40,67,74,18,2,71,49,68,42,94,2,22,0,0,0,0,0,0,0,0,0,0,0,0,0,0,0,0],"split_type":[0,0,0,0,0,0,0,0,0,0,0,0,0,0,0,0,0,0,0,0,0,0,0,0,0,0,0,0,0,0,0],"sum_hessian":[3.502E3,8.4E1,3.418E3,2.2E1,6.2E1,1.989E3,1.429E3,1.6E1,6E0,5.6E1,6E0,1.126E3,8.63E2,1.19E3,2.39E2,2E0,1.4E1,5E0,1E0,5.5E1,1E0,4E0,2E0,1.092E3,3.4E1,6.08E2,2.55E2,3.26E2,8.64E2,3.2E1,2.07E2],"tree_param":{"num_deleted":"0","num_feature":"97","num_nodes":"31","size_leaf_vector":"1"}},{"base_weights":[-4.9514763E-2,-6.8285575E0,1.86811E-1,-7.6681046E0,-1.7103638E-1,1.155132E0,-1.1740408E0,-7.083249E-1,-8.465864E0,-1.3884999E0,1.2516221E0,8.882716E-1,6.0805717E0,-3.2563338E0,-3.23058E-1,7.442322E-2,-1.6772506E-1,-0E0,-8.85695E-1,-0E0,-2.2440703E-1,-0E0,1.3234279E-1,7.487178E-2,1.1114608E0,1.0839362E0,1.6282079E-1,-7.296229E-1,-2.010463E-1,4.340719E-3,-4.0841427E-1],"categories":[],"categories_nodes":[],"categories_segments":[],"categories_sizes":[],"default_left":[0,0,0,0,0,1,0,0,0,0,0,0,0,0,0,0,0,0,0,0,0,0,0,0,0,0,0,0,0,0,0],"id":32,"left_children":[1,3,5,7,9,11,13,15,17,19,21,23,25,27,29,-1,-1,-1,-1,-1,-1,-1,-1,-1,-1,-1,-1,-1,-1,-1,-1],"loss_changes":[5.705617E3,5.7920996E2,4.496329E3,4.3127637E2,6.204842E1,2.501167E3,2.46106E3,5.418347E1,2.3104541E2,4.8230824E1,6.522808E-1,2.521101E3,1.7964355E3,1.8037192E3,1.4466744E3,0E0,0E0,0E0,0E0,0E0,0E0,0E0,0E0,0E0,0E0,0E0,0E0,0E0,0E0,0E0,0E0],"parents":[2147483647,0,0,1,1,2,2,3,3,4,4,5,5,6,6,7,7,8,8,9,9,10,10,11,11,12,12,13,13,14,14],"right_children":[2,4,6,8,10,12,14,16,18,20,22,24,26,28,30,-1,-1,-1,-1,-1,-1,-1,-1,-1,-1,-1,-1,-1,-1,-1,-1],"split_conditions":[-2.1018676E-1,5.53E-1,1.5255752E-1,1.0568515E0,4.9694303E-2,9.9E-1,3.8400939E0,-2.3023358E-1,1E0,1.142219E0,4.54775E0,9.117495E-2,3E0,4.385281E0,6.58875E0,7.442322E-2,-1.6772506E-1,-0E0,-8.85695E-1,-0E0,-2.2440703E-1,-0E0,1.3234279E-1,7.487178E-2,1.1114608E0,1.0839362E0,1.6282079E-1,-7.296229E-1,-2.010463E-1,4.340719E-3,-4.0841427E-1],"split_indices":[7,22,56,71,74,67,2,7,25,18,2,20,11,69,33,0,0,0,0,0,0,0,0,0,0,0,0,0,0,0,0],"split_type":[0,0,0,0,0,0,0,0,0,0,0,0,0,0,0,0,0,0,0,0,0,0,0,0,0,0,0,0,0,0,0],"sum_hessian":[3.502E3,1.1E2,3.392E3,9.5E1,1.5E1,1.987E3,1.405E3,1.3E1,8.2E1,1.2E1,3E0,1.898E3,8.9E1,3.96E2,1.009E3,2E0,1.1E1,5E0,7.7E1,4E0,8E0,1E0,2E0,1.884E3,1.4E1,3.5E1,5.4E1,8E1,3.16E2,9.26E2,8.3E1],"tree_param":{"num_deleted":"0","num_feature":"97","num_nodes":"31","size_leaf_vector":"1"}},{"base_weights":[-4.3861955E-2,1.659538E-1,-7.0314736E0,1.0533084E0,-1.0445554E0,-7.999067E0,2.0374236E0,8.15834E-2,2.521256E0,-5.2321404E-1,-4.2163515E0,-2.5104337E0,-9.61462E0,-3.070806E-2,3.2214114E-1,-5.6602E-1,3.252017E-2,1.8982086E-1,8.765526E-1,-2.052929E-1,1.2257918E-2,-5.7087797E-1,8.114757E-2,-3.4665868E-1,8.222362E-2,-1.0529743E0,-1.5619424E-1],"categories":[],"categories_nodes":[],"categories_segments":[],"categories_sizes":[],"default_left":[0,0,1,1,0,0,0,0,0,0,0,0,0,0,0,0,0,0,0,0,0,0,0,0,0,0,0],"id":33,"left_children":[1,3,5,7,9,11,13,15,17,19,21,23,25,-1,-1,-1,-1,-1,-1,-1,-1,-1,-1,-1,-1,-1,-1],"loss_changes":[5.2293057E3,3.6825374E3,1.1351919E3,2.7991216E3,2.3216328E3,4.9749707E2,8.62253E1,1.6534127E3,2.781E3,1.2625967E3,1.5960325E3,1.728491E2,2.3045801E2,0E0,0E0,0E0,0E0,0E0,0E0,0E0,0E0,0E0,0E0,0E0,0E0,0E0,0E0],"parents":[2147483647,0,0,1,1,2,2,3,3,4,4,5,5,6,6,7,7,8,8,9,9,10,10,11,11,12,12],"right_children":[2,4,6,8,10,12,14,16,18,20,22,24,26,-1,-1,-1,-1,-1,-1,-1,-1,-1,-1,-1,-1,-1,-1],"split_conditions":[2.9E-1,1.3040985E-1,9.9E-1,4.9189653E0,1.749738E0,-1.9810222E-1,-2.255081E-1,3E0,6.238746E0,6.26525E0,7.642243E0,7.400125E0,4.44E-1,-3.070806E-2,3.2214114E-1,-5.6602E-1,3.252017E-2,1.8982086E-1,8.765526E-1,-2.052929E-1,1.2257918E-2,-5.7087797E-1,8.114757E-2,-3.4665868E-1,8.222362E-2,-1.0529743E0,-1.5619424E-1],"split_indices":[39,56,85,96,4,92,7,12,42,51,24,33,22,0,0,0,0,0,0,0,0,0,0,0,0,0,0],"split_type":[0,0,0,0,0,0,0,0,0,0,0,0,0,0,0,0,0,0,0,0,0,0,0,0,0,0,0],"sum_hessian":[3.502E3,3.408E3,9.4E1,1.972E3,1.436E3,8.7E1,7E0,1.197E3,7.75E2,1.246E3,1.9E2,2.7E1,6E1,2E0,5E0,3.8E1,1.159E3,7.18E2,5.7E1,3.68E2,8.78E2,1.47E2,4.3E1,2.3E1,4E0,5E1,1E1],"tree_param":{"num_deleted":"0","num_feature":"97","num_nodes":"27","size_leaf_vector":"1"}},{"base_weights":[-4.2983036E-2,-6.9274025E0,1.4300449E-1,-2.7624655E-1,-8.782444E0,1.0491934E0,-1.0373799E0,-3.1632547E0,3.9627957E0,-9.505872E0,-0E0,7.67526E0,8.218302E-1,-4.7559693E-1,-3.7757525E0,-0E0,-3.4440368E-1,4.2320806E-1,-0E0,-9.596693E-1,-0E0,-1.5661088E-1,1.4147606E-1,8.8910455E-1,-7.5202756E-2,6.894236E-2,1.087556E0,-8.709978E-2,2.4824794E-1,-4.3383637E-1,2.3337069E-1],"categories":[],"categories_nodes":[],"categories_segments":[],"categories_sizes":[],"default_left":[0,0,0,0,1,0,0,0,1,0,0,0,0,0,0,0,0,0,0,0,0,0,0,0,0,0,0,0,0,0,0],"id":34,"left_children":[1,3,5,7,9,11,13,15,17,19,21,23,25,27,29,-1,-1,-1,-1,-1,-1,-1,-1,-1,-1,-1,-1,-1,-1,-1,-1],"loss_changes":[4.574572E3,1.04494E3,3.6777668E3,5.0897867E2,4.1041064E2,2.7881665E3,2.2301636E3,2.4512665E1,1.7397598E1,2.2407227E1,5.835632E1,7.8349146E2,2.3346206E3,1.4675402E3,9.77167E2,0E0,0E0,0E0,0E0,0E0,0E0,0E0,0E0,0E0,0E0,0E0,0E0,0E0,0E0,0E0,0E0],"parents":[2147483647,0,0,1,1,2,2,3,3,4,4,5,5,6,6,7,7,8,8,9,9,10,10,11,11,12,12,13,13,14,14],"right_children":[2,4,6,8,10,12,14,16,18,20,22,24,26,28,30,-1,-1,-1,-1,-1,-1,-1,-1,-1,-1,-1,-1,-1,-1,-1,-1],"split_conditions":[3E0,1.8835068E-1,3E0,-1.1483605E-2,9.9E-1,-1.9881208E-1,1.4411865E0,3.0528126E0,3.1190183E0,1.33E0,3.9330685E0,4.267306E0,9.117495E-2,4.605969E0,9.9E-1,-0E0,-3.4440368E-1,4.2320806E-1,-0E0,-9.596693E-1,-0E0,-1.5661088E-1,1.4147606E-1,8.8910455E-1,-7.5202756E-2,6.894236E-2,1.087556E0,-8.709978E-2,2.4824794E-1,-4.3383637E-1,2.3337069E-1],"split_indices":[12,21,44,40,67,40,89,2,71,31,68,86,20,2,85,0,0,0,0,0,0,0,0,0,0,0,0,0,0,0,0],"split_type":[0,0,0,0,0,0,0,0,0,0,0,0,0,0,0,0,0,0,0,0,0,0,0,0,0,0,0,0,0,0,0],"sum_hessian":[3.502E3,8.4E1,3.418E3,2.2E1,6.2E1,1.939E3,1.479E3,1.6E1,6E0,5.6E1,6E0,5.2E1,1.887E3,1.24E3,2.39E2,2E0,1.4E1,5E0,1E0,5.5E1,1E0,4E0,2E0,4.6E1,6E0,1.874E3,1.3E1,1.103E3,1.37E2,2.23E2,1.6E1],"tree_param":{"num_deleted":"0","num_feature":"97","num_nodes":"31","size_leaf_vector":"1"}},{"base_weights":[-3.52603E-2,1.505173E-1,-6.233676E0,-4.5305043E-1,1.6203278E0,-7.125074E0,1.9311686E0,-3.6453998E0,-1.4378473E-1,1.2767373E0,1.020758E1,-1.0029027E1,-3.4961317E0,-2.9465739E-2,3.09105E-1,7.3368186E-1,-4.3735048E-1,2.7270254E-1,-4.3791194E-2,6.159438E-1,7.668959E-2,-0E0,1.104288E0,-0E0,-1.0324253E0,1.4475596E-1,-4.3905693E-1],"categories":[],"categories_nodes":[],"categories_segments":[],"categories_sizes":[],"default_left":[0,1,1,1,0,0,0,0,0,0,0,0,0,0,0,0,0,0,0,0,0,0,0,0,0,0,0],"id":35,"left_children":[1,3,5,7,9,11,13,15,17,19,21,23,25,-1,-1,-1,-1,-1,-1,-1,-1,-1,-1,-1,-1,-1,-1],"loss_changes":[4.1143765E3,3.051225E3,9.464612E2,2.352018E3,2.711232E3,5.363335E2,8.096073E1,1.9784424E3,1.867804E3,2.3131572E3,3.9512842E2,1.7582324E2,3.5829553E2,0E0,0E0,0E0,0E0,0E0,0E0,0E0,0E0,0E0,0E0,0E0,0E0,0E0,0E0],"parents":[2147483647,0,0,1,1,2,2,3,3,4,4,5,5,6,6,7,7,8,8,9,9,10,10,11,11,12,12],"right_children":[2,4,6,8,10,12,14,16,18,20,22,24,26,-1,-1,-1,-1,-1,-1,-1,-1,-1,-1,-1,-1,-1,-1],"split_conditions":[2.9E-1,4.6056614E0,9.9E-1,6.251674E-3,1.14E0,4.073929E0,-2.255081E-1,1.51142E-1,7.915695E-1,-6.1020117E-2,1.350755E0,2E0,2.121943E-1,-2.9465739E-2,3.09105E-1,7.3368186E-1,-4.3735048E-1,2.7270254E-1,-4.3791194E-2,6.159438E-1,7.668959E-2,-0E0,1.104288E0,-0E0,-1.0324253E0,1.4475596E-1,-4.3905693E-1],"split_indices":[39,78,85,74,67,69,7,21,72,37,16,63,21,0,0,0,0,0,0,0,0,0,0,0,0,0,0],"split_type":[0,0,0,0,0,0,0,0,0,0,0,0,0,0,0,0,0,0,0,0,0,0,0,0,0,0,0],"sum_hessian":[3.502E3,3.408E3,9.4E1,2.416E3,9.92E2,8.7E1,7E0,2.01E2,2.215E3,9.66E2,2.6E1,3.7E1,5E1,2E0,5E0,6E0,1.95E2,1.95E2,2.02E3,7.9E1,8.87E2,2E0,2.4E1,1E0,3.6E1,5E0,4.5E1],"tree_param":{"num_deleted":"0","num_feature":"97","num_nodes":"27","size_leaf_vector":"1"}},{"base_weights":[-2.7375333E-2,-6.0695767E0,1.35472E-1,3.5203743E-1,-6.7693987E0,-3.287226E-1,1.9537046E0,-7.632587E0,-0E0,-5.3903975E-2,-3.4848757E0,1.6643724E0,9.349451E0,-0E0,-8.013751E-1,-1.02204084E-1,1.2278702E-1,-2.2626063E-2,7.4193215E-1,-4.8116904E-1,6.918495E-2,3.688399E-1,1.030089E-1,-0E0,1.0214595E0],"categories":[],"categories_nodes":[],"categories_segments":[],"categories_sizes":[],"default_left":[0,0,0,0,1,0,0,0,0,0,0,0,0,0,0,0,0,0,0,0,0,0,0,0,0],"id":36,"left_children":[1,3,5,-1,7,9,11,13,15,17,19,21,23,-1,-1,-1,-1,-1,-1,-1,-1,-1,-1,-1,-1],"loss_changes":[3.5232185E3,9.0165674E2,2.9159514E3,0E0,5.611455E2,2.3349897E3,1.2385508E3,2.9637354E2,3.828349E1,3.2023606E3,1.2715039E3,8.006476E2,2.8495288E2,0E0,0E0,0E0,0E0,0E0,0E0,0E0,0E0,0E0,0E0,0E0,0E0],"parents":[2147483647,0,0,1,1,2,2,4,4,5,5,6,6,7,7,8,8,9,9,10,10,11,11,12,12],"right_children":[2,4,6,-1,8,10,12,14,16,18,20,22,24,-1,-1,-1,-1,-1,-1,-1,-1,-1,-1,-1,-1],"split_conditions":[3E0,-3.7722057E-1,4.9854994E0,3.5203743E-1,9.9E-1,-1.1483605E-2,8.298929E0,1E0,4.4107612E-2,2.1238043E0,7.325125E0,5.9098864E0,3.1935E0,-0E0,-8.013751E-1,-1.02204084E-1,1.2278702E-1,-2.2626063E-2,7.4193215E-1,-4.8116904E-1,6.918495E-2,3.688399E-1,1.030089E-1,-0E0,1.0214595E0],"split_indices":[12,91,78,0,49,40,24,25,55,53,17,78,2,0,0,0,0,0,0,0,0,0,0,0,0],"split_type":[0,0,0,0,0,0,0,0,0,0,0,0,0,0,0,0,0,0,0,0,0,0,0,0,0],"sum_hessian":[3.502E3,8.4E1,3.418E3,2E0,8.2E1,2.725E3,6.93E2,7.2E1,1E1,2.519E3,2.06E2,6.8E2,1.3E1,3E0,6.9E1,5E0,5E0,2.473E3,4.6E1,1.57E2,4.9E1,1.47E2,5.33E2,1E0,1.2E1],"tree_param":{"num_deleted":"0","num_feature":"97","num_nodes":"25","size_leaf_vector":"1"}},{"base_weights":[-1.96612E-2,1.1132062E-1,-6.716525E0,1.575011E-2,8.011937E0,-8.123358E0,-0E0,-3.8697797E-1,1.5686512E0,-1.07342176E-1,9.308972E0,-3.1389508E-3,-8.539471E0,-8.787791E-1,1.10065676E-1,-5.8297545E-1,-2.4278775E-2,1.293419E-1,8.816515E-1,9.9945015E-1,-0E0,-0E0,-8.654501E-1,-0E0,-1.073328E-1],"categories":[],"categories_nodes":[],"categories_segments":[],"categories_sizes":[],"default_left":[0,1,0,1,0,0,0,0,0,0,0,0,0,0,0,0,0,0,0,0,0,0,0,0,0],"id":37,"left_children":[1,3,5,7,9,11,13,15,17,-1,19,-1,21,23,-1,-1,-1,-1,-1,-1,-1,-1,-1,-1,-1],"loss_changes":[3.1541409E3,2.5257039E3,6.486621E2,2.1586206E3,6.536411E2,1.03539795E2,3.0860783E1,2.060548E3,1.2051967E3,0E0,2.8984473E2,0E0,2.9924072E1,4.5319815E0,0E0,0E0,0E0,0E0,0E0,0E0,0E0,0E0,0E0,0E0,0E0],"parents":[2147483647,0,0,1,1,2,2,3,3,4,4,5,5,6,6,7,7,8,8,10,10,12,12,13,13],"right_children":[2,4,6,8,10,12,14,16,18,-1,20,-1,22,24,-1,-1,-1,-1,-1,-1,-1,-1,-1,-1,-1],"split_conditions":[3.64E-1,4E0,4E0,4.9854994E0,5.267125E0,7.810441E-2,5.2137814E0,4.5038853E0,8.298929E0,-1.07342176E-1,2.4956918E0,-3.1389508E-3,-2.5697657E-1,4.077021E0,1.10065676E-1,-5.8297545E-1,-2.4278775E-2,1.293419E-1,8.816515E-1,9.9945015E-1,-0E0,-0E0,-8.654501E-1,-0E0,-1.073328E-1],"split_indices":[39,77,12,78,17,40,2,42,24,0,4,0,91,2,0,0,0,0,0,0,0,0,0,0,0],"split_type":[0,0,0,0,0,0,0,0,0,0,0,0,0,0,0,0,0,0,0,0,0,0,0,0,0],"sum_hessian":[3.502E3,3.443E3,5.9E1,3.413E3,3E1,4.7E1,1.2E1,2.711E3,7.02E2,3E0,2.7E1,4E0,4.3E1,8E0,4E0,5.8E1,2.653E3,6.89E2,1.3E1,2.5E1,2E0,1E0,4.2E1,2E0,6E0],"tree_param":{"num_deleted":"0","num_feature":"97","num_nodes":"25","size_leaf_vector":"1"}},{"base_weights":[-1.6944237E-2,1.3315299E-1,-5.044472E0,-6.856161E-2,3.2496665E0,-8.519039E0,-2.0888226E0,-1.4234674E-1,9.009263E-1,4.2221913E0,-1.4307775E0,-0E0,-9.256268E0,8.088E-1,-3.8541002E0,-2.2433987E-2,7.9945445E-1,-0E0,4.6440098E-1,4.5110233E-2,-3.1469738E-1,-0E0,-4.3268204E-2,-9.4404566E-1,-0E0,-7.019294E-2,2.8177214E-1,-4.642643E-1,1.0709329E-1],"categories":[],"categories_nodes":[],"categories_segments":[],"categories_sizes":[],"default_left":[0,1,0,1,0,0,0,0,0,0,0,0,0,0,0,0,0,0,0,0,0,0,0,0,0,0,0,0,0],"id":38,"left_children":[1,3,5,7,9,11,13,15,-1,17,19,21,23,25,27,-1,-1,-1,-1,-1,-1,-1,-1,-1,-1,-1,-1,-1,-1],"loss_changes":[2.7060486E3,2.1827522E3,7.840122E2,2.0789292E3,1.0487644E3,2.2077808E2,4.247977E2,2.0765088E3,0E0,3.4594336E2,1.7680116E2,2.246565E0,4.5182617E1,1.4108925E2,2.7184943E2,0E0,0E0,0E0,0E0,0E0,0E0,0E0,0E0,0E0,0E0,0E0,0E0,0E0,0E0],"parents":[2147483647,0,0,1,1,2,2,3,3,4,4,5,5,6,6,7,7,9,9,10,10,11,11,12,12,13,13,14,14],"right_children":[2,4,6,8,10,12,14,16,-1,18,20,22,24,26,28,-1,-1,-1,-1,-1,-1,-1,-1,-1,-1,-1,-1,-1,-1],"split_conditions":[2.9E-1,8.760813E0,3.6235235E0,1.028E1,4.9969077E0,-2.179323E-1,3.64E-1,9.117495E-2,9.009263E-1,6.084221E-1,1.6562442E0,3E0,5E0,2.2921844E0,5.4495625E0,-2.2433987E-2,7.9945445E-1,-0E0,4.6440098E-1,4.5110233E-2,-3.1469738E-1,-0E0,-4.3268204E-2,-9.4404566E-1,-0E0,-7.019294E-2,2.8177214E-1,-4.642643E-1,1.0709329E-1],"split_indices":[39,69,69,52,60,92,39,20,0,53,4,0,29,89,2,0,0,0,0,0,0,0,0,0,0,0,0,0,0],"split_type":[0,0,0,0,0,0,0,0,0,0,0,0,0,0,0,0,0,0,0,0,0,0,0,0,0,0,0,0,0],"sum_hessian":[3.502E3,3.408E3,9.4E1,3.207E3,2.01E2,3.3E1,6.1E1,3.192E3,1.5E1,1.69E2,3.2E1,4E0,2.9E1,2.3E1,3.8E1,3.171E3,2.1E1,1.5E1,1.54E2,1.6E1,1.6E1,2E0,2E0,2.8E1,1E0,1.4E1,9E0,3.5E1,3E0],"tree_param":{"num_deleted":"0","num_feature":"97","num_nodes":"29","size_leaf_vector":"1"}},{"base_weights":[-1.2811104E-2,-5.166647E0,1.2563367E-1,-7.3621125E0,-7.713196E-1,8.38609E-1,-8.814371E-1,-8.05952E0,-1.4375389E-1,2.3038304E0,-3.9311662E0,5.9864175E-1,4.4686203E0,-6.268729E0,-6.3587576E-1,-0E0,-8.267555E-1,4.6776968E-1,-6.31322E-2,-4.0203437E-1,-0E0,4.7699675E-2,8.521703E-1,-7.513174E-2,6.3043964E-1,-2.9893493E-2,-6.82256E-1,-3.7665772E-1,-3.0023739E-2],"categories":[],"categories_nodes":[],"categories_segments":[],"categories_sizes":[],"default_left":[0,0,0,1,1,0,0,0,0,1,0,0,0,0,0,0,0,0,0,0,0,0,0,0,0,0,0,0,0],"id":39,"left_children":[1,3,5,7,9,11,13,15,-1,17,19,21,23,25,27,-1,-1,-1,-1,-1,-1,-1,-1,-1,-1,-1,-1,-1,-1],"loss_changes":[2.5627893E3,7.6896045E2,2.4683245E3,3.708081E1,5.3438885E2,1.6804232E3,1.7696259E3,3.312622E1,0E0,2.581219E2,2.9824219E0,1.707333E3,1.2623958E3,1.0345874E2,1.3886475E3,0E0,0E0,0E0,0E0,0E0,0E0,0E0,0E0,0E0,0E0,0E0,0E0,0E0,0E0],"parents":[2147483647,0,0,1,1,2,2,3,3,4,4,5,5,6,6,7,7,9,9,10,10,11,11,12,12,13,13,14,14],"right_children":[2,4,6,8,10,12,14,16,-1,18,20,22,24,26,28,-1,-1,-1,-1,-1,-1,-1,-1,-1,-1,-1,-1,-1,-1],"split_conditions":[3E0,7.323005E0,1.7232123E-1,8.025E0,-1.2667963E-1,2.1238043E0,1.21636964E-1,1E0,-1.4375389E-1,2.9834528E0,9.9E-1,1.2483013E-2,3.277203E0,-7.59E-1,3.5661561E0,-0E0,-8.267555E-1,4.6776968E-1,-6.31322E-2,-4.0203437E-1,-0E0,4.7699675E-2,8.521703E-1,-7.513174E-2,6.3043964E-1,-2.9893493E-2,-6.82256E-1,-3.7665772E-1,-3.0023739E-2],"split_indices":[12,24,56,51,94,53,23,25,0,71,49,20,69,93,2,0,0,0,0,0,0,0,0,0,0,0,0,0,0],"split_type":[0,0,0,0,0,0,0,0,0,0,0,0,0,0,0,0,0,0,0,0,0,0,0,0,0,0,0,0,0],"sum_hessian":[3.502E3,8.4E1,3.418E3,5E1,3.4E1,2.008E3,1.41E3,4E1,1E1,1.7E1,1.7E1,1.897E3,1.11E2,4.9E1,1.361E3,2E0,3.8E1,8E0,9E0,1.6E1,1E0,1.88E3,1.7E1,2.9E1,8.2E1,7E0,4.2E1,1.19E2,1.242E3],"tree_param":{"num_deleted":"0","num_feature":"97","num_nodes":"29","size_leaf_vector":"1"}},{"base_weights":[-1.4688065E-2,-4.072948E0,1.3918363E-1,-5.08821E0,1.8092439E-1,-4.2205067E0,2.8751972E-1,-5.6004496E0,-8.561499E-2,-1.2824136E0,2.273301E0,-5.950645E0,7.1106803E-1,1.17531575E-1,5.3390145E0,-1.0591449E-1,-6.251318E-1,-1.08503096E-1,4.3746646E-2,-1.520595E-1,-0E0,-0E0,3.3817777E-1,-7.1056604E-1,-0E0,-1.820002E-1,3.3677608E-1,-7.855472E-3,3.1410277E-1,-1.1740897E-3,7.228091E-1],"categories":[],"categories_nodes":[],"categories_segments":[],"categories_sizes":[],"default_left":[0,1,0,1,0,0,0,0,0,0,0,0,0,0,0,0,0,0,0,0,0,0,0,0,0,0,0,0,0,0,0],"id":40,"left_children":[1,3,5,7,9,11,13,15,17,19,21,23,25,27,29,-1,-1,-1,-1,-1,-1,-1,-1,-1,-1,-1,-1,-1,-1,-1,-1],"loss_changes":[2.2380796E3,6.2404126E2,2.1657627E3,2.1509717E2,1.4010318E2,1.0332625E3,2.765122E3,1.4444092E2,2.272336E1,1.0730942E1,7.962478E1,5.5987427E2,3.1884482E2,1.9278925E3,1.1343506E3,0E0,0E0,0E0,0E0,0E0,0E0,0E0,0E0,0E0,0E0,0E0,0E0,0E0,0E0,0E0,0E0],"parents":[2147483647,0,0,1,1,2,2,3,3,4,4,5,5,6,6,7,7,8,8,9,9,10,10,11,11,12,12,13,13,14,14],"right_children":[2,4,6,8,10,12,14,16,18,20,22,24,26,28,30,-1,-1,-1,-1,-1,-1,-1,-1,-1,-1,-1,-1,-1,-1,-1,-1],"split_conditions":[-2.0488928E-1,7.197011E-2,-1.17311426E-1,8.257625E0,6.3955235E0,5.794375E0,2.1934807E0,1E0,2.4806268E-3,8E0,3.18E-1,-1.703062E-1,7.2952304E0,8.760813E0,2.7719376E0,-1.0591449E-1,-6.251318E-1,-1.08503096E-1,4.3746646E-2,-1.520595E-1,-0E0,-0E0,3.3817777E-1,-7.1056604E-1,-0E0,-1.820002E-1,3.3677608E-1,-7.855472E-3,3.1410277E-1,-1.1740897E-3,7.228091E-1],"split_indices":[9,76,20,69,69,87,53,79,56,11,22,7,17,69,51,0,0,0,0,0,0,0,0,0,0,0,0,0,0,0,0],"split_type":[0,0,0,0,0,0,0,0,0,0,0,0,0,0,0,0,0,0,0,0,0,0,0,0,0,0,0,0,0,0,0],"sum_hessian":[3.502E3,1.21E2,3.381E3,9.8E1,2.3E1,1E2,3.281E3,8.6E1,1.2E1,1.3E1,1E1,7.4E1,2.6E1,3.186E3,9.5E1,1.6E1,7E1,7E0,5E0,1.1E1,2E0,4E0,6E0,6E1,1.4E1,1.3E1,1.3E1,2.998E3,1.88E2,2.6E1,6.9E1],"tree_param":{"num_deleted":"0","num_feature":"97","num_nodes":"31","size_leaf_vector":"1"}},{"base_weights":[-1.442487E-2,-3.3653932E0,1.6522197E-1,-8.428739E-1,-5.739205E0,-2.9241234E-1,1.3579332E0,2.3075106E0,-1.7662172E0,-9.877189E0,-2.695242E0,-3.7021345E-1,8.280721E0,5.054499E0,8.821267E-1,-7.773733E-3,3.627977E-1,-3.1445006E-1,2.2111004E-2,-1.1178554E0,-1.9651337E-2,-0E0,-2.8185248E-1,-3.0649534E-1,-1.0735743E-2,-0E0,9.651044E-1,1.3330127E-2,7.5670767E-1,5.847037E-2,7.6932836E-1],"categories":[],"categories_nodes":[],"categories_segments":[],"categories_sizes":[],"default_left":[1,0,0,0,0,0,0,0,0,1,0,0,0,0,0,0,0,0,0,0,0,0,0,0,0,0,0,0,0,0,0],"id":41,"left_children":[1,3,5,7,9,11,13,15,17,19,21,23,25,27,29,-1,-1,-1,-1,-1,-1,-1,-1,-1,-1,-1,-1,-1,-1,-1,-1],"loss_changes":[2.1517542E3,9.7561816E2,1.8376833E3,3.3204916E2,7.416897E2,1.5630214E3,1.5388126E3,1.1706369E2,2.7448837E2,2.8001953E2,2.9655334E1,1.6685166E3,3.297334E2,1.1741284E3,1.5779565E3,0E0,0E0,0E0,0E0,0E0,0E0,0E0,0E0,0E0,0E0,0E0,0E0,0E0,0E0,0E0,0E0],"parents":[2147483647,0,0,1,1,2,2,3,3,4,4,5,5,6,6,7,7,8,8,9,9,10,10,11,11,12,12,13,13,14,14],"right_children":[2,4,6,8,10,12,14,16,18,20,22,24,26,28,30,-1,-1,-1,-1,-1,-1,-1,-1,-1,-1,-1,-1,-1,-1,-1,-1],"split_conditions":[3.646E0,2E0,4.6056614E0,1E0,6.21E-1,1.2483013E-2,-6.1020117E-2,-2.98E-1,3.1717265E0,6.9380937E0,6.098693E-1,3.288108E-2,-1.82E-1,-1.0682557E-1,1.14E0,-7.773733E-3,3.627977E-1,-3.1445006E-1,2.2111004E-2,-1.1178554E0,-1.9651337E-2,-0E0,-2.8185248E-1,-3.0649534E-1,-1.0735743E-2,-0E0,9.651044E-1,1.3330127E-2,7.5670767E-1,5.847037E-2,7.6932836E-1],"split_indices":[69,44,78,30,22,20,37,8,51,87,89,74,8,20,67,0,0,0,0,0,0,0,0,0,0,0,0,0,0,0,0],"split_type":[0,0,0,0,0,0,0,0,0,0,0,0,0,0,0,0,0,0,0,0,0,0,0,0,0,0,0,0,0,0,0],"sum_hessian":[3.502E3,1.72E2,3.33E3,9.2E1,8E1,2.406E3,9.24E2,1.5E1,7.7E1,2.3E1,5.7E1,2.395E3,1.1E1,9.2E1,8.32E2,6E0,9E0,4.5E1,3.2E1,1.8E1,5E0,2E0,5.5E1,2E2,2.195E3,2E0,9E0,3.6E1,5.6E1,8.09E2,2.3E1],"tree_param":{"num_deleted":"0","num_feature":"97","num_nodes":"31","size_leaf_vector":"1"}},{"base_weights":[-1.0362596E-2,-4.572189E0,1.11841395E-1,3.227335E-1,-5.2012362E0,7.3282164E-1,-7.643956E-1,-5.901719E0,-0E0,3.3112356E-1,2.6091678E0,-2.387037E0,-1.0381326E-1,-0E0,-6.223626E-1,8.815384E-2,-5.1972356E-2,2.1736693E-2,7.3657674E-1,1.6612832E-1,7.41877E-1,-5.601094E-1,-1.1929973E-1,1.0038244E-2,-3.1363854E-1],"categories":[],"categories_nodes":[],"categories_segments":[],"categories_sizes":[],"default_left":[0,0,0,0,1,0,0,0,0,0,1,0,0,0,0,0,0,0,0,0,0,0,0,0,0],"id":42,"left_children":[1,3,5,-1,7,9,11,13,15,17,19,21,23,-1,-1,-1,-1,-1,-1,-1,-1,-1,-1,-1,-1],"loss_changes":[2.0075636E3,6.4879004E2,1.8705496E3,0E0,3.6722046E2,1.4829736E3,1.4946946E3,2.0386475E2,1.5708336E1,1.2509565E3,1.3815845E3,1.4233491E3,6.676083E2,0E0,0E0,0E0,0E0,0E0,0E0,0E0,0E0,0E0,0E0,0E0,0E0],"parents":[2147483647,0,0,1,1,2,2,4,4,5,5,6,6,7,7,8,8,9,9,10,10,11,11,12,12],"right_children":[2,4,6,-1,8,10,12,14,16,18,20,22,24,-1,-1,-1,-1,-1,-1,-1,-1,-1,-1,-1,-1],"split_conditions":[3E0,-3.7722057E-1,1.7232123E-1,3.227335E-1,9.9E-1,-7.3E-2,3.8400939E0,1E0,2.3531797E0,1.028E1,6.808745E0,-1.918686E-1,6.685383E0,-0E0,-6.223626E-1,8.815384E-2,-5.1972356E-2,2.1736693E-2,7.3657674E-1,1.6612832E-1,7.41877E-1,-5.601094E-1,-1.1929973E-1,1.0038244E-2,-3.1363854E-1],"split_indices":[12,91,56,0,49,57,2,25,32,52,96,7,33,0,0,0,0,0,0,0,0,0,0,0,0],"split_type":[0,0,0,0,0,0,0,0,0,0,0,0,0,0,0,0,0,0,0,0,0,0,0,0,0],"sum_hessian":[3.502E3,8.4E1,3.418E3,2E0,8.2E1,2.008E3,1.41E3,7.2E1,1E1,1.668E3,3.4E2,3.96E2,1.014E3,3E0,6.9E1,5E0,5E0,1.653E3,1.5E1,2.97E2,4.3E1,9.5E1,3.01E2,9.56E2,5.8E1],"tree_param":{"num_deleted":"0","num_feature":"97","num_nodes":"25","size_leaf_vector":"1"}},{"base_weights":[-7.0569646E-3,-2.9865973E0,1.5232834E-1,-6.74595E-1,-5.1639113E0,3.460093E-2,4.3364387E0,1.1305111E-1,-3.6982162E0,-9.107258E0,-2.3016791E0,-1.339796E-1,2.4878938E0,-3.0271423E0,5.6682343E0,-9.210048E-2,1.76697E-1,-0E0,-3.805581E-1,-9.624197E-1,-0E0,-0E0,-2.4573426E-1,-2.0535944E-2,6.5772766E-1,4.1857487E-1,-0E0,-3.11852E-1,-0E0,7.065055E-1,-4.3043222E-2],"categories":[],"categories_nodes":[],"categories_segments":[],"categories_sizes":[],"default_left":[1,0,0,0,0,0,0,0,0,0,0,0,0,0,0,0,0,0,0,0,0,0,0,0,0,0,0,0,0,0,0],"id":43,"left_children":[1,3,5,7,9,11,13,15,17,19,21,23,25,27,29,-1,-1,-1,-1,-1,-1,-1,-1,-1,-1,-1,-1,-1,-1,-1,-1],"loss_changes":[1.7007231E3,8.229592E2,1.6000212E3,2.8294995E2,6.9210034E2,1.3755482E3,1.0708003E3,1.7523505E2,4.8530273E0,2.269143E2,2.5479889E1,1.4142385E3,9.355659E2,9.448242E-1,7.7825586E2,0E0,0E0,0E0,0E0,0E0,0E0,0E0,0E0,0E0,0E0,0E0,0E0,0E0,0E0,0E0,0E0],"parents":[2147483647,0,0,1,1,2,2,3,3,4,4,5,5,6,6,7,7,8,8,9,9,10,10,11,11,12,12,13,13,14,14],"right_children":[2,4,6,8,10,12,14,16,18,20,22,24,26,28,30,-1,-1,-1,-1,-1,-1,-1,-1,-1,-1,-1,-1,-1,-1,-1,-1],"split_conditions":[3.646E0,2E0,2.1934807E0,1.6154124E-1,6.21E-1,8.760813E0,-2.2127233E-1,-2.24E-1,2.221805E-1,7.2952304E0,-1.9231738E-1,9.117495E-2,4.9953256E0,2.9663703E0,2.234932E-1,-9.210048E-2,1.76697E-1,-0E0,-3.805581E-1,-9.624197E-1,-0E0,-0E0,-2.4573426E-1,-2.0535944E-2,6.5772766E-1,4.1857487E-1,-0E0,-3.11852E-1,-0E0,7.065055E-1,-4.3043222E-2],"split_indices":[69,44,53,40,22,69,7,57,21,17,7,20,60,4,38,0,0,0,0,0,0,0,0,0,0,0,0,0,0,0,0],"split_type":[0,0,0,0,0,0,0,0,0,0,0,0,0,0,0,0,0,0,0,0,0,0,0,0,0,0,0,0,0,0,0],"sum_hessian":[3.502E3,1.72E2,3.33E3,9.2E1,8E1,3.251E3,7.9E1,7.8E1,1.4E1,2.3E1,5.7E1,3.047E3,2.04E2,9E0,7E1,4.7E1,3.1E1,1E0,1.3E1,2.2E1,1E0,4E0,5.3E1,3.026E3,2.1E1,1.19E2,8.5E1,8E0,1E0,5.7E1,1.3E1],"tree_param":{"num_deleted":"0","num_feature":"97","num_nodes":"31","size_leaf_vector":"1"}},{"base_weights":[-7.255005E-3,8.412667E-2,-4.942748E0,2.7228131E0,-7.808463E-2,-6.6624675E0,-9.010687E-1,-0E0,4.900731E0,-3.8071742E0,1.04395226E-1,-7.292199E0,-0E0,8.396099E-1,-2.0772552E0,-2.3445666E-1,7.23781E-2,-1.182663E-1,5.630037E-1,-6.1081165E-1,-1.955425E-1,-6.5212003E-3,2.6864097E-1,-7.624345E-1,-0E0,-0E0,9.334512E-2,-0E0,-3.1812814E-1],"categories":[],"categories_nodes":[],"categories_segments":[],"categories_sizes":[],"default_left":[0,0,1,0,0,1,0,0,0,0,0,0,0,0,0,0,0,0,0,0,0,0,0,0,0,0,0,0,0],"id":44,"left_children":[1,3,5,7,9,11,13,15,17,19,21,23,-1,25,27,-1,-1,-1,-1,-1,-1,-1,-1,-1,-1,-1,-1,-1,-1],"loss_changes":[1.6367043E3,1.507827E3,3.2306787E2,1.2255597E3,2.2607402E3,1.1199011E2,9.738027E1,1.918991E2,6.1683716E2,4.6034375E2,1.3929863E3,7.200842E1,0E0,1.9572353E0,9.022128E1,0E0,0E0,0E0,0E0,0E0,0E0,0E0,0E0,0E0,0E0,0E0,0E0,0E0,0E0],"parents":[2147483647,0,0,1,1,2,2,3,3,4,4,5,5,6,6,7,7,8,8,9,9,10,10,11,11,13,13,14,14],"right_children":[2,4,6,8,10,12,14,16,18,20,22,24,-1,26,28,-1,-1,-1,-1,-1,-1,-1,-1,-1,-1,-1,-1,-1,-1],"split_conditions":[1.7113863E0,5.02135E-1,3.0205941E0,-1.6139123E-1,5.465686E-1,7E0,1.8835068E-1,1.2978699E0,1.3420244E0,3.778125E0,8.760813E0,8.312797E-2,-0E0,2.0613956E0,3.1190183E0,-2.3445666E-1,7.23781E-2,-1.182663E-1,5.630037E-1,-6.1081165E-1,-1.955425E-1,-6.5212003E-3,2.6864097E-1,-7.624345E-1,-0E0,-0E0,9.334512E-2,-0E0,-3.1812814E-1],"split_indices":[18,54,53,56,90,79,21,35,35,87,69,6,0,35,71,0,0,0,0,0,0,0,0,0,0,0,0,0,0],"split_type":[0,0,0,0,0,0,0,0,0,0,0,0,0,0,0,0,0,0,0,0,0,0,0,0,0,0,0,0,0],"sum_hessian":[3.502E3,3.446E3,5.6E1,1.94E2,3.252E3,3.3E1,2.3E1,9E1,1.04E2,1.45E2,3.107E3,2.8E1,5E0,7E0,1.6E1,1.7E1,7.3E1,9E0,9.5E1,5.2E1,9.3E1,2.921E3,1.86E2,2.6E1,2E0,1E0,6E0,6E0,1E1],"tree_param":{"num_deleted":"0","num_feature":"97","num_nodes":"29","size_leaf_vector":"1"}},{"base_weights":[-1.0740904E-2,1.871677E-1,-2.078623E0,6.331114E-2,5.591118E0,-3.966884E0,-2.7436242E-1,-5.8231675E-3,6.503642E0,-1.4876404E0,6.77251E0,-5.6114125E0,-0E0,-2.7969267E0,8.9716184E-1,6.3907254E-1,-7.7076512E-3,7.1878284E-1,-0E0,-0E0,-2.0632887E-1,-0E0,7.7271044E-1,-7.0861556E-2,-6.94665E-1,3.8779852E-1,-1.644309E-1,1.0419816E-1,-3.780217E-1,2.1971165E-1,-1.3103443E-1],"categories":[],"categories_nodes":[],"categories_segments":[],"categories_sizes":[],"default_left":[0,0,0,1,0,0,0,0,0,0,0,0,0,0,0,0,0,0,0,0,0,0,0,0,0,0,0,0,0,0,0],"id":45,"left_children":[1,3,5,7,9,11,13,15,17,19,21,23,25,27,29,-1,-1,-1,-1,-1,-1,-1,-1,-1,-1,-1,-1,-1,-1,-1,-1],"loss_changes":[1.460097E3,2.0884163E3,1.00966113E3,1.4678876E3,7.389946E2,9.300581E2,5.553481E2,1.3660876E3,2.2453333E2,3.0492306E1,3.3462524E2,5.550476E2,3.977742E2,2.9325714E2,3.9062543E2,0E0,0E0,0E0,0E0,0E0,0E0,0E0,0E0,0E0,0E0,0E0,0E0,0E0,0E0,0E0,0E0],"parents":[2147483647,0,0,1,1,2,2,3,3,4,4,5,5,6,6,7,7,8,8,9,9,10,10,11,11,12,12,13,13,14,14],"right_children":[2,4,6,8,10,12,14,16,18,20,22,24,26,28,30,-1,-1,-1,-1,-1,-1,-1,-1,-1,-1,-1,-1,-1,-1,-1,-1],"split_conditions":[1.20305745E-2,7.642243E0,6.4915233E0,4E0,-1.4254332E-1,3.64E-1,4.568615E0,1.51142E-1,2.4956918E0,-1.6966853E-1,1.0033759E0,4.1427743E-1,2.125653E0,-1.8954318E-2,6.383236E-2,6.3907254E-1,-7.7076512E-3,7.1878284E-1,-0E0,-0E0,-2.0632887E-1,-0E0,7.7271044E-1,-7.0861556E-2,-6.94665E-1,3.8779852E-1,-1.644309E-1,1.0419816E-1,-3.780217E-1,2.1971165E-1,-1.3103443E-1],"split_indices":[40,24,17,77,20,22,78,21,4,38,18,54,4,58,91,0,0,0,0,0,0,0,0,0,0,0,0,0,0,0,0],"split_type":[0,0,0,0,0,0,0,0,0,0,0,0,0,0,0,0,0,0,0,0,0,0,0,0,0,0,0,0,0,0,0],"sum_hessian":[3.502E3,3.2E3,3.02E2,3.14E3,6E1,1.39E2,1.63E2,3.115E3,2.5E1,7E0,5.3E1,9.4E1,4.5E1,5E1,1.13E2,2.3E1,3.092E3,2.3E1,2E0,1E0,6E0,9E0,4.4E1,2.5E1,6.9E1,8E0,3.7E1,8E0,4.2E1,7.4E1,3.9E1],"tree_param":{"num_deleted":"0","num_feature":"97","num_nodes":"31","size_leaf_vector":"1"}},{"base_weights":[-6.066901E-3,-3.7620227E0,9.4026595E-2,3.144106E-1,-4.362602E0,6.519924E-1,-6.3022834E-1,-4.944736E0,-0E0,2.3982131E-1,2.7192044E0,-2.900372E0,-3.1199378E-1,-0E0,-5.2383614E-1,7.4949704E-2,-4.755666E-2,9.262645E-2,-7.939642E-2,1.8896042E-1,9.256682E-1,-7.337304E-1,-1.554874E-1,-4.5398828E-2,3.4207913E-1],"categories":[],"categories_nodes":[],"categories_segments":[],"categories_sizes":[],"default_left":[0,0,0,0,1,0,0,0,0,1,0,0,0,0,0,0,0,0,0,0,0,0,0,0,0],"id":46,"left_children":[1,3,5,-1,7,9,11,13,15,17,19,21,23,-1,-1,-1,-1,-1,-1,-1,-1,-1,-1,-1,-1],"loss_changes":[1.3605422E3,5.392317E2,1.389614E3,0E0,2.5396252E2,1.6245243E3,1.0345378E3,1.628601E2,1.181864E1,1.1724786E3,1.443717E3,8.596315E2,6.860382E2,0E0,0E0,0E0,0E0,0E0,0E0,0E0,0E0,0E0,0E0,0E0,0E0],"parents":[2147483647,0,0,1,1,2,2,4,4,5,5,6,6,7,7,8,8,9,9,10,10,11,11,12,12],"right_children":[2,4,6,-1,8,10,12,14,16,18,20,22,24,-1,-1,-1,-1,-1,-1,-1,-1,-1,-1,-1,-1],"split_conditions":[3E0,-3.7722057E-1,3E0,3.144106E-1,9.9E-1,-7.3E-2,5.8634295E0,1E0,2.3531797E0,-7.3E-2,-1.154912E-1,6.21E-1,5.2137814E0,-0E0,-5.2383614E-1,7.4949704E-2,-4.755666E-2,9.262645E-2,-7.939642E-2,1.8896042E-1,9.256682E-1,-7.337304E-1,-1.554874E-1,-4.5398828E-2,3.4207913E-1],"split_indices":[12,91,44,0,49,57,17,25,32,93,9,22,2,0,0,0,0,0,0,0,0,0,0,0,0],"split_type":[0,0,0,0,0,0,0,0,0,0,0,0,0,0,0,0,0,0,0,0,0,0,0,0,0],"sum_hessian":[3.502E3,8.4E1,3.418E3,2E0,8.2E1,1.939E3,1.479E3,7.2E1,1E1,1.63E3,3.09E2,1.68E2,1.311E3,3E0,6.9E1,5E0,5E0,9.86E2,6.44E2,2.87E2,2.2E1,2.7E1,1.41E2,1.274E3,3.7E1],"tree_param":{"num_deleted":"0","num_feature":"97","num_nodes":"25","size_leaf_vector":"1"}},{"base_weights":[-3.9302935E-3,7.840255E-2,-4.26851E0,-4.5971018E-1,7.270454E-1,-5.2854466E0,-0E0,-3.2688954E0,-1.7260589E-1,5.172177E0,4.1990072E-1,-0E0,-5.622337E0,-3.727923E-1,1.06356286E-1,-2.1879868E-1,-5.7450914E-1,2.2322975E-1,-6.276453E-2,5.861165E-1,-0E0,1.8217543E-2,3.37985E-1,-5.866431E-1,-0E0,-0E0,-6.076005E-2],"categories":[],"categories_nodes":[],"categories_segments":[],"categories_sizes":[],"default_left":[0,0,0,0,0,0,0,0,0,1,0,0,0,0,0,0,0,0,0,0,0,0,0,0,0,0,0],"id":47,"left_children":[1,3,5,7,9,11,13,15,17,19,21,-1,23,25,-1,-1,-1,-1,-1,-1,-1,-1,-1,-1,-1,-1,-1],"loss_changes":[1.2783635E3,1.211261E3,3.3515662E2,1.48025E3,2.0768022E3,8.301672E1,1.7345665E1,2.52656E2,1.884582E3,3.403435E2,1.00596454E3,0E0,4.538501E1,3.6355243E0,0E0,0E0,0E0,0E0,0E0,0E0,0E0,0E0,0E0,0E0,0E0,0E0,0E0],"parents":[2147483647,0,0,1,1,2,2,3,3,4,4,5,5,6,6,7,7,8,8,9,9,10,10,12,12,13,13],"right_children":[2,4,6,8,10,12,14,16,18,20,22,-1,24,26,-1,-1,-1,-1,-1,-1,-1,-1,-1,-1,-1,-1,-1],"split_conditions":[3.64E-1,-1.7021115E-1,4E0,4E0,1.42E-1,7.810441E-2,5.4495625E0,6.343788E0,3.782826E-1,1.8927196E0,8.4795E0,-0E0,8.847343E0,4.077021E0,1.06356286E-1,-2.1879868E-1,-5.7450914E-1,2.2322975E-1,-6.276453E-2,5.861165E-1,-0E0,1.8217543E-2,3.37985E-1,-5.866431E-1,-0E0,-0E0,-6.076005E-2],"split_indices":[39,9,12,12,22,40,2,60,23,89,87,0,51,2,0,0,0,0,0,0,0,0,0,0,0,0,0],"split_type":[0,0,0,0,0,0,0,0,0,0,0,0,0,0,0,0,0,0,0,0,0,0,0,0,0,0,0],"sum_hessian":[3.502E3,3.443E3,5.9E1,1.875E3,1.568E3,4.7E1,1.2E1,1.61E2,1.714E3,8.9E1,1.479E3,4E0,4.3E1,9E0,3E0,1.28E2,3.3E1,2.63E2,1.451E3,7.7E1,1.2E1,1.382E3,9.7E1,4E1,3E0,2E0,7E0],"tree_param":{"num_deleted":"0","num_feature":"97","num_nodes":"27","size_leaf_vector":"1"}},{"base_weights":[-3.984854E-3,6.887494E-2,-4.3011637E0,1.1456243E-2,6.5153027E0,-7.2247367E0,-1.8189013E-1,-1.4991957E-1,1.9895322E0,-2.9975232E-1,9.150446E0,-0E0,-7.868028E0,1.8356403E0,-2.8464065E0,-2.774094E-2,2.967178E-1,3.3355737E-1,1.0931007E-2,9.647917E-1,-0E0,-8.0319995E-1,-0E0,2.4295501E-1,-0E0,-3.328236E-1,-0E0],"categories":[],"categories_nodes":[],"categories_segments":[],"categories_sizes":[],"default_left":[0,0,1,1,0,0,0,0,0,0,0,0,0,0,0,0,0,0,0,0,0,0,0,0,0,0,0],"id":48,"left_children":[1,3,5,7,9,11,13,15,17,-1,19,-1,21,23,25,-1,-1,-1,-1,-1,-1,-1,-1,-1,-1,-1,-1],"loss_changes":[1.1448628E3,1.2150597E3,6.474155E2,1.120112E3,1.062778E3,1.443899E2,2.612599E2,1.2478418E3,6.3258215E2,0E0,1.5006055E2,0E0,1.6308716E1,4.562034E1,4.3298447E1,0E0,0E0,0E0,0E0,0E0,0E0,0E0,0E0,0E0,0E0,0E0,0E0],"parents":[2147483647,0,0,1,1,2,2,3,3,4,4,5,5,6,6,7,7,8,8,10,10,12,12,13,13,14,14],"right_children":[2,4,6,8,10,12,14,16,18,-1,20,-1,22,24,26,-1,-1,-1,-1,-1,-1,-1,-1,-1,-1,-1,-1],"split_conditions":[8.099378E0,9.117495E-2,2.9766133E-1,8.543875E0,1E0,1.0033327E0,3.24973E-1,-1.6139123E-1,4.9953256E0,-2.9975232E-1,1.668366E-1,-0E0,6E0,6.287E0,4.1267815E0,-2.774094E-2,2.967178E-1,3.3355737E-1,1.0931007E-2,9.647917E-1,-0E0,-8.0319995E-1,-0E0,2.4295501E-1,-0E0,-3.328236E-1,-0E0],"split_indices":[60,20,56,69,0,35,56,7,60,0,6,0,0,87,2,0,0,0,0,0,0,0,0,0,0,0,0],"split_type":[0,0,0,0,0,0,0,0,0,0,0,0,0,0,0,0,0,0,0,0,0,0,0,0,0,0,0],"sum_hessian":[3.502E3,3.451E3,5.1E1,3.432E3,1.9E1,2.4E1,2.7E1,3.177E3,2.55E2,3E0,1.6E1,3E0,2.1E1,1.5E1,1.2E1,3.064E3,1.13E2,1.41E2,1.14E2,1.5E1,1E0,2E1,1E0,1.2E1,3E0,1E1,2E0],"tree_param":{"num_deleted":"0","num_feature":"97","num_nodes":"27","size_leaf_vector":"1"}},{"base_weights":[-2.2495156E-3,-2.4127445E0,1.2611353E-1,-5.0213176E-1,-4.1989117E0,-2.4921453E-4,2.7000885E0,-1.2375067E0,1.8578259E0,-8.566691E0,-2.0497968E0,1.4860575E-1,-2.051998E0,6.384116E0,1.0778316E0,-2.1247716E-1,4.0207878E-2,3.2593474E-1,-1.30741345E-2,-9.2268246E-1,-0E0,-0E0,-2.2135134E-1,5.309507E-1,8.179963E-3,-3.6587313E-1,5.821062E-2,-0E0,7.549287E-1,2.4081068E-1,-7.561996E-2],"categories":[],"categories_nodes":[],"categories_segments":[],"categories_sizes":[],"default_left":[1,0,0,0,0,0,0,1,0,0,0,0,0,0,0,0,0,0,0,0,0,0,0,0,0,0,0,0,0,0,0],"id":49,"left_children":[1,3,5,7,9,11,13,15,17,19,21,23,25,27,29,-1,-1,-1,-1,-1,-1,-1,-1,-1,-1,-1,-1,-1,-1,-1,-1],"loss_changes":[1.1125867E3,5.530121E2,1.1133553E3,1.9380383E2,5.6305286E2,9.9635077E2,8.1280066E2,1.5233313E2,1.05222855E2,2.0851794E2,3.764914E1,9.688429E2,9.8740295E2,3.3162366E2,3.3969995E2,0E0,0E0,0E0,0E0,0E0,0E0,0E0,0E0,0E0,0E0,0E0,0E0,0E0,0E0,0E0,0E0],"parents":[2147483647,0,0,1,1,2,2,3,3,4,4,5,5,6,6,7,7,8,8,9,9,10,10,11,11,12,12,13,13,14,14],"right_children":[2,4,6,8,10,12,14,16,18,20,22,24,26,28,30,-1,-1,-1,-1,-1,-1,-1,-1,-1,-1,-1,-1,-1,-1,-1,-1],"split_conditions":[3.646E0,2E0,2.0090544E0,-1.36E-1,2.3414242E-1,1.7555057E0,-1.75E-1,4E0,2.4327576E0,7.2952304E0,6.098693E-1,1.51142E-1,1.8552792E0,-1.8632902E-1,-1.689393E-1,-2.1247716E-1,4.0207878E-2,3.2593474E-1,-1.30741345E-2,-9.2268246E-1,-0E0,-0E0,-2.2135134E-1,5.309507E-1,8.179963E-3,-3.6587313E-1,5.821062E-2,-0E0,7.549287E-1,2.4081068E-1,-7.561996E-2],"split_indices":[69,44,35,57,23,89,75,79,16,17,89,21,53,9,38,0,0,0,0,0,0,0,0,0,0,0,0,0,0,0,0],"split_type":[0,0,0,0,0,0,0,0,0,0,0,0,0,0,0,0,0,0,0,0,0,0,0,0,0,0,0,0,0,0,0],"sum_hessian":[3.502E3,1.72E2,3.33E3,9.2E1,8E1,3.18E3,1.5E2,7.7E1,1.5E1,1.5E1,6.5E1,2.969E3,2.11E2,3.5E1,1.15E2,5.2E1,2.5E1,8E0,7E0,1.4E1,1E0,3E0,6.2E1,2.6E1,2.943E3,1.31E2,8E1,7E0,2.8E1,6.8E1,4.7E1],"tree_param":{"num_deleted":"0","num_feature":"97","num_nodes":"31","size_leaf_vector":"1"}},{"base_weights":[-6.527912E-4,1.2072202E-1,-2.29627E0,-2.834637E0,2.3225681E-1,-6.8746934E0,-1.5680175E0,-6.6576533E0,-5.482799E-1,2.9768064E0,9.605881E-2,-0E0,-7.300052E-1,-0E0,-1.6938813E0,-0E0,-7.375764E-1,-1.8719064E-1,2.5521857E-1,6.523659E-2,6.438646E-1,2.460573E-2,-2.347158E-1,3.4142304E-2,-2.4681283E-2,-9.963995E-2,-2.6370925E-1],"categories":[],"categories_nodes":[],"categories_segments":[],"categories_sizes":[],"default_left":[0,0,1,0,0,0,0,0,0,0,0,0,0,0,0,0,0,0,0,0,0,0,0,0,0,0,0],"id":50,"left_children":[1,3,5,7,9,11,13,15,17,19,21,-1,-1,23,25,-1,-1,-1,-1,-1,-1,-1,-1,-1,-1,-1,-1],"loss_changes":[1.0030764E3,1.0818383E3,4.112754E2,9.3159094E2,1.1745405E3,1.4005554E1,3.2904816E1,2.6005127E2,3.9800745E2,1.0860657E3,1.1182832E3,0E0,0E0,2.7337372E0,4.1332977E1,0E0,0E0,0E0,0E0,0E0,0E0,0E0,0E0,0E0,0E0,0E0,0E0],"parents":[2147483647,0,0,1,1,2,2,3,3,4,4,5,5,6,6,7,7,8,8,9,9,10,10,13,13,14,14],"right_children":[2,4,6,8,10,12,14,16,18,20,22,-1,-1,24,26,-1,-1,-1,-1,-1,-1,-1,-1,-1,-1,-1,-1],"split_conditions":[8.7E-1,1.13291524E-1,3.8706395E-1,6.4005E0,-6.1020117E-2,4.2591877E0,1.3534851E0,-2.0264865E-1,4.6056614E0,2.1360394E-1,2E0,-0E0,-7.300052E-1,-1.912289E-1,-1.6833301E-1,-0E0,-7.375764E-1,-1.8719064E-1,2.5521857E-1,6.523659E-2,6.438646E-1,2.460573E-2,-2.347158E-1,3.4142304E-2,-2.4681283E-2,-9.963995E-2,-2.6370925E-1],"split_indices":[57,23,56,33,37,51,50,74,78,23,26,0,0,38,94,0,0,0,0,0,0,0,0,0,0,0,0],"split_type":[0,0,0,0,0,0,0,0,0,0,0,0,0,0,0,0,0,0,0,0,0,0,0,0,0,0,0],"sum_hessian":[3.502E3,3.331E3,1.71E2,1.09E2,3.222E3,1E1,1.61E2,3.2E1,7.7E1,1.39E2,3.083E3,2E0,8E0,1.3E1,1.48E2,3E0,2.9E1,5.9E1,1.8E1,9.2E1,4.7E1,2.917E3,1.66E2,3E0,1E1,1.03E2,4.5E1],"tree_param":{"num_deleted":"0","num_feature":"97","num_nodes":"27","size_leaf_vector":"1"}},{"base_weights":[-4.388327E-3,-7.972625E-2,3.7897289E0,-5.2444214E-1,6.0799134E-1,-7.4676394E-1,5.5907593E0,-4.276874E0,-3.662139E-1,2.3413043E-1,3.5240805E0,-0E0,-8.2956426E-2,-0E0,6.253572E0,-7.490372E-1,-9.1658816E-2,-5.4074973E-2,2.975602E-1,2.244095E-1,-2.4912392E-3,5.218555E-1,2.7548147E-2,2.5666456E-3,-1.8386967E-2,6.6007584E-1,-0E0],"categories":[],"categories_nodes":[],"categories_segments":[],"categories_sizes":[],"default_left":[0,0,0,0,0,0,0,0,0,0,0,0,0,0,0,0,0,0,0,0,0,0,0,0,0,0,0],"id":51,"left_children":[1,3,5,7,9,11,13,15,17,19,21,-1,-1,23,25,-1,-1,-1,